
[[-0.44780598814551553,-0.41298290947382754,-0.09292782332606152,-0.3924693520580208,0.40102929095523476,-0.46201592089413746,0.03603245303746706,-0.16797188848678002,0.3519170319329088,-0.34050719027448995,-0.16295292988718435,-0.16637319236750459,-0.25500620925761375,-0.4984984886979464,-0.06389324886865004,-0.41255606454967897,0.09742987749153066,-0.43029262553727743,-0.18471061326059657,-0.05184787868951611,0.40522906528803904,-0.40740502561796477,-0.3579945225649588,0.28990225736234176,-0.4789336121794706,0.41098096109386084,0.07323849868446732,-0.23484788173489657,0.33766805719867454,0.2686251604835237,-0.15670742884049527,0.30132700429557313,-0.29330711633034845,0.10873296033150612,0.02690582458936915,0.3091695585911997,-0.18490632423051873,-0.10192845609580592,0.26916053973968573,0.012590070696370333,0.1846630947312871,0.14541294259989435,0.1844734046497421,0.39464905723540233,-0.011045979033559698,0.16902442752161403,-0.12541864695332258,-0.4682566524838414,0.25401086763358477,-0.3187017415876163,0.3200218583470758,0.413476324867954,0.15790457040461947,-0.33004269932555164,-0.1632534342047537,-0.10897627992515711,-0.4268788088727733,-0.04340251679500616,0.07299892751408116,-0.16406745355167437,-0.31110786148371844,-0.41201120405269565,0.12814898374066838,-0.48735536368426635,-0.14765059840453496,-0.2501168377077203,0.08249174135259377,0.26346948753118743,0.5617782971331808,0.3651175508826811,0.6565855275042279,0.5983331282931582,0.24869974430510988,-0.18299418559447303,0.06091494820140054,-0.22072726120760605,0.5958519798572972,-0.006841046041195646,0.2675842303183068,-0.4542562609241428,-0.3649359270389437,-0.3069924715717218,-0.24380723969991736,-0.14812205654678368,-0.22823973466970826,-0.0659010033838061,-0.07981227026138464,-0.3915014872372672,-0.43752382353123226,-0.12483662969663435,-0.39082744929916596,-0.04510357070822195,-0.47782144875111054,0.08304954146941501,-0.34063880457784856,0.3724752315044934,0.21762335490175405,0.6721882494711644,-0.04834249568031403,0.1343211735752216,0.42516498781906664,0.06564363124225317,0.034888176215045655,0.31743474470875876,0.6615429866106044,0.45140222331429614,-0.03722841474565073,0.254368803247142,0.20054393322008499,-0.1275488542434073,-0.2652031482554735,-0.4217931088552346,0.37873934988795943,-0.4430103735866826,0.018526537872704557,0.03741537061601074,-0.35234114478325496,0.19316765479464085,0.4254975664008089,0.23769274924014952,-0.13192482621287469,-0.3920299155229422,0.44236315360107553,0.11871407727987705,0.42107923980150086,0.551075591912035,0.028901138288334835,-0.44042404518456724,-0.29586143944571713,0.2780980400819827,-0.15310481557906835,0.4469508428428099,0.432274044485871,0.46585556954707397,0.2072463356515511,-0.11287716902374487,0.3902240168175975,-0.43390631156265036,0.021709442488903552,0.3712250809034679,0.014549553209655798,-0.3627980890705609,-4.2955126062612183e-05,0.04530109118451099,-0.1276111523107867,0.43811469574807416,-0.1712877947059461,-0.22163565595449863,0.010771597635053233,-0.39008204926751855,-0.21447117683888645,0.09621960680938806,0.6246151093615426,-0.552111292234663,-0.5227747477482244,-0.16581630410057727,0.633566884544254,0.2950279605035959,-0.3497735551040952,-0.07791411579070869,-0.4961242424608425,-0.11025044566778126,-0.106913664992955,0.21463127948386054,0.6154071764163824,0.3447938654946984,0.03712437128265437,0.29173993693265216,-0.016210549243362612,0.23039074116623806,0.2768150758631133,-0.24239545720079034,0.3401424976024148,0.08701036331059613,-0.005499620735005166,-0.13397058938133166,-0.34793831510677803,-0.010548520304909225,-0.23225466595849756,0.22988568924527458,0.3900718954699127,0.027261216556804448,-0.1429299308769127,0.00043222125453575266,0.3904851804911009,-0.3994885844873767,-0.4598146110702733,0.3740265860096425,-0.2772084952086607,0.21899156488453497,-0.025433582491279638,0.04740486744083629,0.5752236678505556,-0.013305221197807889,0.3023093675242435,0.350512199155504,-0.3194935333864816,0.4770645318677893,-0.43716842193485606,-0.0820227002383163,0.013749105328689382,0.3339152696984039,-0.34486354459805735,-0.04650688273934407,-0.1721410488092017,0.5215663639402232,-0.15474841092270303,-0.04117234747661523,0.2202681284165762,-0.2509949668578321,0.582942003411061,-0.29444373016139375,-0.19975587892672914,-0.6064666991933177,0.11559436885281976,0.6545308035310355,-0.28560009440082856,0.14243374239458437,-0.12999456139951346,0.11487674489249936,0.36619947979655315,-0.10672688675945309,0.2183573182447585,0.003880404736329586,0.4052523284892372,-0.22514560338217124,0.44836010361965645,-0.3143612105052996,-0.44329490066582683,0.22729810173835685,0.09892593544166525,-0.18560989881126297,-0.6315128625289628,0.5333425285295205,-0.23997815958218743,0.28513233720306547,0.34528621038869467,0.08678980750906043,0.5588644964053984,-0.3021521972903597,-0.3371872665188859,-0.19562183262513644,0.03212608608087266,-0.3029726464616415,-0.2318026559212248,0.108252696695078,-0.638661946477118,-0.18338212173587387,0.3410456294309874,-0.33896172472075053,-0.22608087084640058,-0.32818437524333427,-0.08411287663795268,-0.07508983948049533,0.10693642313497374,0.017210224431792213,-0.28336674379745425,-0.4703133281980444,-0.17020523345595412,0.0027894720105446757,0.1418978522370457,0.2579781485137167,-0.3788596858485228,-0.013245444895254145,-0.23805467714197492,-0.2633041837638486,-0.7796799951459169,-0.7139051317116527,-0.7697315640246687,-1.174519976436599,-0.9882753422860852,-0.19602662238358876,-1.0302554182637937,-0.26799231102961957,-0.8474931974695562,-0.20013434229105964,-0.4491893796095905,0.13619495414565663,0.28812135320285376,-0.062346098387370985,-0.14370331423142318,-0.0069190861492546985,-0.3058209171101266,-0.272457279341201,-0.26093939490948,-0.5859511241817186,0.1881226907705347,-0.6406437802573404,0.20009800204607447,-0.5599102874715994,-0.2843076636428426,-0.4017004943110633,-0.5772075842541593,0.13222089682484842,-0.022827377615402756,0.16888880288287733,-0.460489806703642,-0.6968338907186697,-0.6840906401656863,-0.7632336977066545,-0.44626079787181966,-0.42663364954925276,-1.2713233135664481,-1.0409319398128511,-0.271639173006114,-0.31842446428547344,-0.26558127638554513,-0.278115395162843,0.1622557192346963,-0.06550511492429485,0.060675787797056804,-0.09997945721569933,0.38890041911139167,-0.2231283570053354,-0.701948151950681,-0.7990633354825405,-0.009608644478666849,0.16466832888948882,-0.6090338723904821,-0.39245585643709635,0.15725988335450214,-0.059461370189227244,-0.044520374081175554,0.7247688403796267,0.31613171419633335,-0.11505588130335337,0.5549302379006301,-0.403513089086899,-0.11312486791748791,-0.29370446582732845,-0.45312821583043766,-0.6537459285601297,-0.5268909271153536,0.20192903574266757,0.4573199095000557,-0.3203684863714684,-0.3740226156715972,-0.024768131584720087,0.351622394361349,-0.48736550693794656,0.14025842402183447,-0.6965877243499004,-0.7188990914926849,-0.7312867873738148,-0.41561724042303017,0.19801440424963088,0.01488851616263801,-0.6197947454293906,-0.43186268750864715,0.4664324009085449,0.6937463241979123,1.4458402567123358,0.8667792451328501,0.9704501564473754,0.7494629886680187,0.39635897084963384,-0.6458029239463653,-0.35767465221886063,0.029053680745160737,-0.45646498500743904,-0.37717130908049434,-0.14125551139204706,-0.10116318429382339,0.2867240948604822,0.31448261052006343,-0.4420641948092546,-0.43898115345467337,0.4205356242649238,-0.4416920343845801,-0.6545526420028418,-0.027161251870117413,0.09107170832118609,-0.1684653314671457,-0.08246491465620566,-0.03120221068161838,0.3341028068249135,0.12245606897060933,0.7164571925596572,1.670548424393673,1.2352208466037484,1.1423159913569385,0.9612235094699025,0.9917531260379661,0.014613842042163306,-0.5537145669727466,-0.12482818745064148,-0.634006863614135,-0.07589521545925017,0.46591865250334746,0.212496996748018,-0.4226013422793685,0.21945013473641273,0.10983985473130116,-0.05537401862171955,-0.3950355156410248,0.10050490354766206,0.06178624478922158,-0.5662525781278557,-0.00875344894186749,-0.497047762480518,-0.5019214647984851,-0.5185492799719986,-0.25889232261405914,-0.11996487304708084,0.8046669016882466,1.2234931623749588,0.7504850331695945,0.459243344864792,0.6779990423048647,0.5023406523019361,0.42224262112411715,-0.045841410799071634,-0.24976549761554367,-0.5418701332546547,-0.4667342014039384,0.6230205491449652,0.3206088233352853,-0.12026474750383602,0.39261986639965146,-0.42657745705163835,-0.4433885564275898,-0.24531800101792758,-0.3700578029637003,-0.0679083863191727,-0.05978138791215808,-0.20771952180646322,0.07498883897127959,-0.4281192023616426,-0.0811650781140386,0.15352998997380424,-0.6823520601244353,0.5325135235375044,0.5053233305701238,0.921830488816295,0.9895034743214723,0.5376944073468516,-0.22708892337067715,-0.6826099006189041,-0.7662129585068933,-0.44080953847247667,-0.10123912329958223,-0.01514157950489564,0.1828610661251434,0.4235984911362371,0.06758094095949659,0.28856364950797697,0.32029751408399565,-0.3678632895754406,-0.49982118724889935,-0.2905026426346608,0.41563736596400397,0.3352308375786864,-0.44566741029171775,0.2672757724084422,-0.10134423849783221,-0.42714119109539,-0.6595835776841211,0.10519751563204707,-0.07495792234945739,-0.4353290186543883,-0.18506511408110274,0.8928770148778965,0.5732571113660828,0.36608005922793435,-0.05805079205485524,-0.5212754073881986,-0.6560766903221141,-0.05354580600148022,-0.15854954443526542,0.12801431041495404,-0.1930101931368003,-0.44846186381806175,-0.13799272683018488,-0.05871909108583225,0.48857561078086886,-0.07381113956544239,-0.002675589445206504,-0.0774468219989325,0.3660058213443863,0.32026853872559374,-0.36975746544155913,0.23767901575844486,0.24798595110307237,0.3541568035939395,-0.541064668433965,-0.13195076651385904,-0.7044180129522483,-0.10307748842867329,0.442900767508735,0.3313551696661902,0.44306691131395487,-0.08478783770875375,0.006600417178609163,-0.14068987854824028,-0.3626881667826216,-0.35415685002841163,0.06309980089652896,-0.031493743143679684,-0.5973017659719313,0.26353616996295653,-0.10086496019100022,0.26685143230114383,-0.395690676229571,0.2110503119885489,0.3372806883254226,0.29700267298321864,0.3868257186427105,0.1892530757114404,-0.13920682061885184,-0.08479409077697281,0.34009193526584736,0.5268998092725987,0.15039189217216592,-0.44436604061557977,-0.7384254567462942,-0.464393651754621,0.5114153487800979,-0.025769063440712454,0.2791214466058242,-0.3233167311841943,-0.44408600760443334,-0.10699231277058202,0.006450970896387029,0.05965446646104748,0.05060323852611102,0.0915050899407803,-0.06254917993129339,0.22582449308305483,0.7069603182485749,0.5156759344891593,0.3996712814229673,0.1103915558662661,-0.35614368365420923,0.2576102605571128,0.46644849051814175,0.21946593710545478,0.04890930454759975,0.6638175072961481,0.29088292821487777,0.34794860611250067,0.07172029287289883,0.22828218370038236,0.22309554308479118,-0.021268541269332433,0.22275852353544093,-0.08167280895221402,-0.13728903629685654,-0.1304798362589081,-0.006126901325703658,0.49201601778932164,0.2605174309798149,-0.06682776607808735,-0.06704474317385314,-0.1561540135854171,-0.16061128635270658,0.11731365818645732,0.04094156318077693,-0.2951127186202688,-0.3938386791583406,0.15782931064369368,-0.4273322027164279,0.07084877013371758,0.494242073082138,0.1497875967394606,0.3914008753628614,0.5730762003346372,0.10463450175140249,0.0268737422781461,-0.14491650300356215,0.4037399975735601,-0.03840343347634808,-0.38543594992541935,0.2597018215175996,-0.04302387186202131,-0.11521147165379456,0.31741225667944656,0.46596579484792766,0.7902675517198084,0.21894408591781625,0.07677004827080512,-0.4513698906396879,-0.018559631445009255,0.34111371909688387,0.36720760440876304,0.23060846802239146,-0.3503024474641547,0.41490020608203687,-0.3598664305145032,0.307067476717264,-0.33292202823799144,0.2143803359497036,0.35409986778739816,-0.10894241849255014,0.06949554112168321,-0.25761239250158374,0.5631338650020365,-0.05757388681921232,0.8730351465527619,0.11740554197452836,-0.7058007448303285,-0.6647105991293575,-0.4467433636702542,-0.08866745258280655,-0.0929065358395527,-0.4413859298587124,0.08897727462814002,0.3910573754920727,-0.024333807841295574,-0.3037836264578584,0.0638065458766771,0.44548160198060605,0.26741911871804175,0.4872678707795892,-0.06378770525701907,-0.5188853039387803,-0.4621637237588532,0.47164996543020277,-0.1350319963707487,0.2824007525295669,0.5123997252392622,0.23857490736798606,0.2735131231593854,-0.07036542221582788,0.2504690763986184,0.2654843258303904,0.016992665988365158,0.007203049173787961,-0.6505277031946198,-0.7331753784355891,-0.6872052520616895,-0.20243253082845022,-0.016106996227267446,-0.14712930176922207,0.3104234445897484,-0.11221295178098661,0.06450454816308263,-0.47702856391314874,0.5031451310016959,-0.09170579411970989,-0.21416879718447576,-0.4155958733290073,-0.2973192023716003,-0.4714186726453836,0.058236363261348165,0.47660411846437656,-0.490117013315989,-0.014099221556294178,-0.0692904074984569,0.2709566011344054,-0.3144628261164758,-0.2912222141046227,-0.2222522001220149,-0.1979156105050963,-0.09166960101292496,-0.1981693285663138,-0.3644379508549451,-0.363904651883441,0.11119051051919537,-0.5938081463187804,-0.2569425883060089,0.24918794521641738,-0.08781063658046709,-0.34927839782137077,0.43203604957315084,0.0038154347216201533,0.1977129198044709,0.4172555280259714,0.43393148128830683,-0.05478168277210394,-0.04951477997498987,-0.4597839309988285,-0.4486211202103283,0.4360116177630541,0.44652227257294586,-0.10755801862885278,0.3332263264981766,0.23817507664968296,-0.0627817494341983,-0.3551972189634001,0.16150186841053316,-0.2943648036683522,-0.04592240831864112,-0.002039438079431494,-0.4408073263612175,-0.17538968575744074,-0.17211770298979123,0.18530805700041475,-0.33800198102424106,0.22078213029831087,-0.08482170610733906,0.08073235038732417,0.43961948665945266,0.1642151387267822,0.35847638347428656,-0.27550581662957263,-0.24802311093716936,-0.023666381700070675,-0.27852675632449514,-0.18801437073017427,0.2763912870086521,-0.30328387109796284,-0.017861089054243315,-0.16934883934740178,0.1262733209339145,-0.03179070176343725,0.4326981029032991,0.007895005769944731,0.46475144010211045,-0.3796182184728797,-0.07384404269967175,0.0037505887332076296,-0.3206545824072761,0.532173857670692,0.46258099419325815,-0.010076466905184574,0.13745985601103372,0.10627606762924913,-0.2268846380787195,-0.42294196782229926,0.20728524021133715,0.3081612035005634,-0.036518927207400846,0.12352563279694893,0.1094610356635411,0.277019903913662,-0.32520130032954403,0.020102505803712405,0.4078718208980523,-0.08292631636084301,0.23632636961571973,-0.4172728061536023,-0.1145908959498431,-0.436949128464367,-0.030929733834456893,0.1407387006311263,-0.3503774815395903,-0.3173412456012711,0.20860025513695318,-0.35328799572485886,0.5078181422950574,0.34589440839380087,-0.04147982921060961,-0.30343204276202784,-0.1902407536257604,-0.2205705321153915,0.3348700421063996,-0.19616210468763984,0.093630797169946,-0.43959939363193545,0.3775007665252122,0.4381664803753058,0.2698737974311955,0.11094314775475966,-0.4744206902479002,-0.3417076528792873,-0.16713114797110262,0.16564040050039763,-0.33889658939523104,-0.46065637827514405,-0.25679358497318683,-0.15273991810005808,-0.41575744357613986,0.41675651420440823,-0.05905185569617492,-0.4030588391033162,0.05632330955871233,-0.4494041937092307,0.15866948272513087,0.15784491082858532,-0.08119658559643572,-0.33893015035757346,0.18899611310203507,-0.32075465118802693,0.2697640588406182,0.08256355707395473,0.23979857353209205,0.4631482805479733,0.11867407195452447,-0.18172626863108904,-0.0665006008439778,0.10084499849648289,0.41425649067860415,-0.35645989618392493,-0.2713425031453367],[0.2439515158387499,0.29055486594919905,0.005714324655123953,0.4892983526400568,0.08748935333169566,0.4436476775827694,-0.3027137168879343,0.02937835972514597,-0.2676623759819354,0.3961034884368278,-0.3813534258272205,-0.1974058810311709,-0.32283873435029875,-0.48374354147959625,0.21895725425148652,0.1269903567147934,0.16840763338782344,-0.26875319273381154,0.1376520643137717,-0.2683151713094036,0.1203549054101885,0.4195472690765875,0.49507738197848455,-0.4220597422377394,-0.23180345611641034,0.06160709130082282,-0.23404187886358713,0.46530886499195584,0.11727682300149173,0.48178481099117093,-0.4912042678432242,0.2117068351951245,-0.40952886688661494,0.012881085163397107,0.4770650779794787,-0.42905157747332123,-0.03514046500344537,0.004702279871784125,-0.06397070361229747,-0.19899831411618868,0.24267709750813898,0.1312897084865561,-0.3547427683634037,-0.1650770406761927,-0.058305222773983444,0.24845470198878988,-0.0322546768942583,-0.19764244785810506,0.19651684302574843,-0.020225206383079352,-0.1492700895992515,0.3510852504758427,-0.2692706622143553,-0.14164239551120034,0.42566897890108973,-0.2455598429336679,0.0741087798257119,-0.40778784729908896,-0.4908633368467464,0.21359677331333612,-0.1258768669502909,-0.04984425263161672,-0.11264321499213402,-0.3214342308684466,-0.31700808803083397,0.19083771496352625,-0.27812182682914594,-0.04684806648333823,-0.3378663825223704,0.3092083139242618,0.05897044875428308,0.24946857660979427,-0.05482404013119219,-0.10982707962116241,-0.23345296675645075,0.07730321683436504,0.339105583529626,0.4746737623734903,-0.10359113126555054,0.20262891155546248,0.18729861260744415,-0.49439577816790403,0.4210322108638776,0.48370134831060446,-0.27459871620017223,0.09775065448566095,-0.34528953962866,0.09898072390663819,-0.054947672517557555,0.2531317853403285,-0.1397699721109058,0.25251324198685915,0.1982620051703103,-0.09741829619186966,0.5129936200356231,-0.4112246238574746,-0.3470200974372807,-0.28416949333459224,-0.16405907419450552,0.03971786975866402,0.1856066732042519,0.15363253240682936,-0.2915252224631446,0.08417951522224809,-0.29459418674105403,-0.19641257247753127,-0.07498812957543961,-0.011107825198703729,-0.10524241407455703,-0.07591506948813043,0.47361652207781546,0.19394739856265514,-0.17500349641050333,-0.36493286042420964,-0.26786796549312314,0.2689606931358426,0.5013573920755078,-0.15614724636777644,-0.36725230429119876,-0.07904858604293201,0.5393936230104943,-0.13380828387209026,0.2774835730088239,0.07019667548855699,0.05752673964918864,-0.45311822157273474,-0.27497104308552045,0.0053149937838813666,-0.06667237648043499,-0.4903357733489695,-0.06889714639192875,0.43275085734307384,0.15996537069619388,0.10159121814297356,0.27992025501215606,0.5216876775819137,-0.33665183200606563,-0.2986082977687889,-0.480065503493249,0.45938215100720564,-0.42765279832104214,0.03780610136793756,-0.019773269325671854,0.1264919323003125,-0.20149258780483917,0.4850812788032566,-0.11253744010003053,-0.007124819482313362,0.22919341288392894,-0.24563774657036866,0.1124936403615016,0.4302442541272928,-0.3465424519843797,0.23639731111090134,0.2857887547836976,0.03727909281190577,-0.32763935783913556,0.08787170474856322,-0.3809677792855137,-0.01657626394812173,-0.09917605884994336,-0.36251921040460006,-0.35932342982453164,0.50696517965,0.19240487360973235,0.4878758008359544,-0.376914931558495,-0.04588089520405909,-0.4438817706822091,0.2513142792426341,-0.1300900293808059,0.2582320039727458,0.07832531347737204,0.15426721231992252,-0.08618044747182949,0.24931622438717824,0.3097587041780952,0.249781334867299,-0.15637467905287025,-0.16851954348583015,0.3214174465680344,0.21514462373610857,-0.4452619232334451,-0.4313389682546457,-0.3082411837939276,-0.1770298399018229,-0.56179123065452,-0.30852771902978937,0.3911917816689686,0.09988112127941394,0.29436931952517326,-0.13927863609071145,0.25467525405904984,-0.03168720385152903,0.15141358850563255,-0.2996589506464737,-0.002987375644865361,-0.43512892444431217,-0.3667599290582695,0.14115130386126815,0.25077235035487133,0.12021451484525364,-0.14027914294198887,0.038229772005233635,-0.14575539714159116,-0.09970766970320036,-0.23312223481271377,-0.32578493175546963,0.24265448487119304,-0.6018472482503473,-0.6345048034487483,-0.8351234141701838,-0.33439560167728666,-0.48347636062249544,-0.02879299515675386,0.17444286624725824,-0.4825041674371627,0.5182734921827803,0.2560076736272529,0.4401266880939552,0.6355482836563076,0.5923066951004409,0.20988962094613012,-0.24995155872609073,0.3627759958261604,-0.15874359734113713,-0.29605148582595825,-0.10551498158385965,0.07263139166384158,0.3807957009768326,-0.028224126768743862,-0.11558839358431128,0.33565840094092436,0.413106120572997,0.022945878104928666,0.11133684940260796,-0.33864117674110256,-0.4846674673687995,-0.5460702259495614,-0.10231376915644609,-0.34262836202717517,-0.6697778961337041,0.11096140017496782,0.0016878727405151253,0.16286269845988924,0.34457760802059434,0.15624223030922152,-0.3318334716199682,-0.30819477698276054,0.5632872182313426,-0.4165308955407912,-0.43340607627509314,0.21575296370331795,-0.4045870461928388,-0.16403024084087137,-0.30582296890092664,-0.23098401576349867,-0.26784810153561595,-0.2553574319734603,-0.407776793554803,-0.430864250627687,-0.4622856700463759,-0.47808312436182093,-0.5356535116945689,-0.5813524067555812,0.09240883854245449,0.10731184785956886,-0.012049044052456546,0.040102085729572155,-0.3349750614487613,-0.22382790516796022,-0.21652321028659796,-0.045914646150186776,-0.42590505579034243,0.12731444637208106,0.3361577036245368,-0.2960135438605721,0.04454012810038348,0.059879067463091656,0.322352992816192,-0.3601570231353899,-0.2770843603637258,-0.33601726975568424,0.3740307286985566,-0.21098335102549123,0.15281098580642216,-0.3544255791416397,-0.28103426768959267,0.06883130117430679,-0.2941564063304897,-0.23941191174821694,0.3107521890798016,-0.3921151784689454,0.3667549765612207,-0.44098782279509363,-0.4002352251292062,0.2089635675360185,-0.2836635243500787,0.3158413574732538,0.19764613923689894,0.09081420653174967,-0.21873085234065046,-0.5841955421843384,0.164300911449818,0.3865109051886442,0.36784911312409646,-0.2703186479699379,-0.06317435212543826,-0.46133712018233586,0.28231569134568174,-0.4447505215463689,-0.3878698875963502,0.4458498801830728,-0.06655482822611275,0.0885593252813182,0.11089039381748661,0.22377226719290988,-0.47714543531937886,0.06535750017252866,0.1606122893647486,0.48418548895200014,0.34939466267346364,-0.1038430805355983,0.5683559116272214,0.4180239259710366,-0.01232295233244174,0.20888365269494844,0.12718716061268878,0.14423184064169045,0.3251222558629511,-0.5655976276591483,0.29602402434029157,-0.12160848299507739,0.3661387817753423,-0.21897700460868877,0.0013423860590766649,-0.23821963416762837,0.16589457704977778,0.3012291424121156,-0.03334584749080761,-0.28837984445484466,-0.0005668524177848371,-0.40807653789492543,0.4561002520694681,0.09068254869018338,0.030002013544298628,0.048678617240617,-0.1643379614519877,0.2221626524596435,0.5987375500867892,0.7891479383728098,0.5803595189690153,0.6397976930346531,0.050618201745469285,-0.3321113489460668,-0.3208931723563474,-0.3699898755164851,0.1273986010102792,-0.21360163830880363,-0.47225326972887927,0.21580246727176536,-0.2783630249821111,-0.10075414641135112,0.19930582566994642,-0.19057921433186914,0.03649611782548584,0.4136004302857805,0.20827242535588686,-0.13020897061643621,0.35116929964843774,-0.08009663169227395,0.14886513380711602,0.12147678861981988,-0.5077345016514274,0.14862100144111537,-0.28767359349769334,0.5423359705216738,0.05507341824747278,0.6935244362425204,0.44120249128034367,0.6734206676447866,0.29684147044955844,-0.41490254221833855,0.11714704264641437,-0.6319931108961039,-0.039789464218635544,0.3627326057220637,0.43068193651866304,-0.30574216390171494,-0.2162289748595693,0.18664308561726453,-0.2043981222420002,-0.25308100550451323,0.47809576049965324,0.0669207743276138,-0.4426290850879517,0.026628977858282346,-0.31594054957269685,0.042189046807186895,0.03663440025271487,-0.32123379230653515,0.19776704773602705,-0.13268353636364277,0.45560641225348963,0.03317081139985777,0.02001068937150608,0.12045221291242358,0.4992979071873538,0.025909403562325673,-0.037509055905093354,-0.7354158344924151,-0.5637666784187486,-0.7679933291759732,-0.37886080781612047,-0.23268400723132746,0.41347381651891824,0.2296983649043867,0.2429252867015071,-0.49226245177922495,0.0037030294506635517,-0.49234841477338465,0.21613106889867734,-0.061965722458553474,-0.32538186403559555,-0.2482264410559903,-0.5133058258339844,0.23772988871076972,-0.5847102094619271,0.2877852924510176,0.44307956069417304,0.42730252966409166,-0.14825625487097094,0.6299735863053461,0.21419201889076372,0.6378117058740088,-0.2488582532637449,0.24589486038264854,0.003364255205459657,-0.20154653715872872,0.0440497784707161,-0.2451277507472689,-0.5170419313735121,-0.02455563637264884,-0.27973140498147747,0.261898867222672,-0.3283965127471833,-0.35476506779575895,0.46257286734891134,0.05352601692276304,0.04781545578343596,0.03416396463251529,0.022134732050140275,-0.5230777375772534,-0.7198197012700189,-0.22928830355760998,-0.28636600744499696,0.09085232596420689,0.4142138328949509,0.34095245406763863,0.05398265425480378,-0.1814163776531061,0.15203520254856126,0.11903386962246663,-0.5991550881474151,-0.2168893553029334,-0.011696448212673339,-0.6693613681632307,0.0921238538914953,-0.38300240318812223,-0.03620275451897052,0.2191140367965624,0.18985976328924514,0.03238168157140606,-0.2824831731538487,0.4047146048646085,0.28403026230973666,-0.0005173642567514682,-0.09762557768409483,-0.3607949463252663,0.11292669926258839,0.1604505960687342,0.16697267747957298,-0.23815715099404688,-0.5730460447899359,-0.6458931087695413,-0.47852426170036505,-0.34151526964188433,0.010179514696820291,0.40750901321191707,0.5045670388035701,0.37854187280263907,-0.48144209695680334,-0.373016076938483,-0.8909909080199633,-0.39718046965668075,0.1520481115806132,-0.2378039515167139,0.23028551054465196,0.23161556465774952,0.3759642173339402,0.15309635718648504,0.30321068023052467,0.45608400336022037,-0.06233428927398119,-0.29346186331103763,-0.1185388333765415,0.06863179756838403,0.11065738820448717,-0.26509555660428785,0.032653733445659236,-0.48042585657590475,-0.5607169799468268,0.025856662429669486,0.019031417793712903,0.10211600560456073,-0.1362705087189036,0.342858283729463,-0.35462329994379216,-0.34499298764144404,-0.28581099934702503,-0.3683592974739361,-0.8191858668741717,-0.6948110431849022,-0.36559030055967356,-0.25588014223643923,0.11412872771110802,-0.5105163697674459,0.2059233339789147,-0.04440176300214448,0.36148884331381154,0.1537398202572715,0.3566713707154243,0.06837598112554641,0.4561967880857715,0.49208469387902565,0.4731187887786363,-0.14859909976948218,0.4174756715580476,0.15886119000370819,0.20857885255849645,0.23237234948089033,0.21858207607091185,-0.2606340599813977,0.3230868840449457,-0.5480019997665605,0.26472354411064547,-0.8188802212468139,-0.49239429920795047,-0.7326667538548588,-0.010897081718415351,0.36762270294603144,-0.25904268317262197,0.18027522695118442,-0.0007734244585752263,-0.2524133934951849,-0.2793522404441887,0.08097183439152371,0.04379936176165445,0.5002376587156627,0.0506840135924609,-0.19881548126558207,-0.2159859906249684,-0.4682607560588816,-0.41975077662887167,-0.4123566338357545,0.1961200509949967,0.3983873465408207,0.24059308410189603,-0.03376742123404584,-0.357187539199754,0.32965948949787677,0.35255174172624637,-0.12370198079757391,-0.04145713954962431,-0.08908577750723257,-0.49754213305560785,-0.16119580401965666,-0.0025067348976033966,0.03803837410606848,0.17551104770129758,-0.035727763913057105,0.36760186558558133,-0.1839010379060887,0.14920300054441846,0.47286219282036224,-0.24346873586332898,-0.33519839486166114,-0.2297115241485719,0.1177636163340777,-0.44769094061312603,-0.16014021613094098,0.02732804551832376,-0.44573078925419085,-0.10545179286363891,0.3026679117072659,-0.18529317398354028,-0.013439613960034917,-0.11627012151605348,0.003487249615467794,-0.22247826381380792,0.018743685137879804,0.07744949932850101,-0.4586537832602204,0.21745443576764412,0.5099577485263158,-0.17312539407187835,0.5009881256347122,-0.3137245514859121,0.052697141175141016,-0.10850823417632699,0.18603644139870146,0.1660238228380171,-0.03939336393685766,0.20719267354114934,0.2424148682046944,0.06123465570577236,0.07158932649165756,0.3725759417616234,-0.17628482987385602,-0.003902021289486724,0.12120279600425526,0.20415180359151006,-0.21325734161778634,-0.20660032022494745,-0.021475052536030187,0.3207662661418179,-0.041015050671396054,0.1778865311625293,0.525217163270204,0.14079692531385574,0.16774592014754514,-0.11022545607235,0.46546405562458015,0.013860012867529452,-0.29277623673539277,-0.4273838636388785,-0.3291566184693826,-0.0068687370277934635,-0.38178824395335104,0.15205205233621144,-0.1520361029006786,-0.43345497263826654,0.290203190082527,0.3541617465929812,-0.14381978211348861,-0.06273788484378012,0.464286766627549,0.16635785967108652,-0.06388971183275861,0.16104710295076188,0.3323362984888955,-0.38508673628207596,0.3085118396204342,-0.3264157383958573,0.423434013432896,-0.0594793624016778,-0.21633833496004484,0.20645113001849155,-0.5079068468373654,0.43156747626662817,0.4875757004702638,0.2309419608603932,-0.28571268112878856,-0.4133169820529965,0.24491474075044667,0.38344850512504564,-0.039088432713919645,-0.12814944637135156,-0.3153483701755988,-0.45239311965710366,-0.07094039646624757,-0.26327382486262146,0.018537608159147907,0.31297220139699294,0.11103612879343734,-0.4351871311377878,0.1351814054973384,0.049924313636953224,-0.4691761038863714,0.2579764014704572,-0.38705444026693103,-0.31672235390923437,0.4999103867438987,0.30097904167002953,0.30559506850914986,-0.06797541719220182,-0.4171821753522881,-0.22356945719238389,0.1726731695496639,-0.5071750026924066,-0.10391157898972153,0.3354836328863426,-0.31789954861673786,0.014529482410169797,0.36403937955664434,-0.4170129284141118,-0.20398366115704897,-0.44549418355426174,-0.03166509191977601,0.039213436992142144,-0.04060814522145522,-0.18850206204279368,-0.40788687144578506,-0.0792349207791633,0.24473389284137767,-0.25498617302209586,0.1307592555992864,-0.03412780734661112,0.03942653455585545,-0.0837147391141301,-0.11265785124559702,-0.1178439915506307,0.17056717302872362,0.27625943775474426,0.35841635856641885,-0.0674943675997818,-0.37749509332091336,0.043003454060843944,0.048655814631954265,-0.17975787446377897,-0.006915252751453042,0.07405416196917211,-0.4144763725815644,-0.15491672352039812,-0.4694751457055288,-0.08460985174575432,0.23841046726277182,-0.12431275652337742,-0.04942205511654756,-0.21761788551129296,0.2652893312048222,-0.12846852368991638,0.31627710140477905,-0.009863669326531752,-0.26653553707747585,-0.02282275462658886,0.1686159798250792,-0.40676624735133,-0.17397058285018602,-0.2926963271072226,-0.41903772622216146,-0.27782965196126697,0.07142944503362773,0.10066446616946081,0.3944484104080244,0.21288902651024363,0.3755959327883048,0.226096002961723,-0.020359188706591053,-0.31031000592227725,0.43624674150862686,-0.4363414169974781,-0.047067548375834704,-0.19231566148858112,-0.1021491807507256,-0.36402153333844217,-0.3158912850909616,-0.22016046076227297,0.4275636349674075,0.15864569979952764,-0.3959455689387197,0.39496999078549894,0.4102715739654925,-0.42877326388212295,0.46981963765746804,-0.16921101085418178,0.430358132200102,0.1095889399282706,-0.1205004582910242,0.48595904028914594,-0.18003320605042217,-0.2759455496317926,-0.407688404247253,0.3496778618697141,-0.3592191679888565,0.2787034573606255,-0.22695885714365324,0.3296125278966175,0.5067369926407731,-0.44903926179765563,-0.37745463289892617,0.12034267924689773,0.3081943416929355,-0.447149236927414],[0.2709170272104706,-0.37160682665203204,0.15113018131639125,0.14913017493889028,-0.4352531988456285,0.30849094657841114,-0.07227969351628868,-0.21032402893843358,-0.48851795075399007,0.18399990488229537,-0.3060893057950823,-0.15743790341180838,0.4203081985110617,-0.22834950614474328,-0.1270742287586644,0.07798156303074533,-0.07915030969380418,-0.034302525926274786,0.017948267660544272,-0.4824348880402004,-0.07677199740353999,-0.45041633517345103,0.1685300204132322,-0.24703724638302468,-0.3407193125957093,-0.1576317324116989,-0.3682480274593676,-0.36054556959317186,0.1168992517731389,-0.19092423596952243,0.48128341491085946,-0.0867780067940229,0.028048387861557465,0.31622061506196036,0.055701406180319546,0.3424106707898263,0.01594516343988307,-0.14293794933361004,0.36425157047132384,0.23822614545235962,0.192534250009719,-0.25729142502774965,0.27232832696932663,0.4780095987069778,0.20058133838369954,-0.32322994332475663,0.311686688739672,-0.4563335785371471,0.14294802650132993,-0.43276523636894476,-0.3749838783573216,-0.2767771679627673,-0.045358495426466285,-0.40523891563148184,0.42155400206761884,-0.2678780468268087,0.38729120152335683,-0.4593873347848433,0.10197524420395263,-0.0007024236146698452,-0.37619372067131085,0.17197148568674692,-0.10439631346034,0.09144912688262279,0.11792845694726124,0.043247173856867493,0.39059954215987397,0.4145937440615577,0.07621736923159758,0.21253290440723524,0.5934212999198563,0.01988064310942164,0.4241277835492597,0.3246584312744883,0.3606346436158171,0.38026327924923714,-0.07689940594027271,0.14960932549128883,-0.42523248577882705,-0.4808414466052799,0.3810037370400746,0.4101188775451193,0.06268585603728796,0.41959760567820237,-0.018164188377422372,-0.46530474330048355,-0.023006079136742106,0.05136328253520377,0.02053476569617428,0.19115425167203573,0.24057320480293962,-0.1570742634839089,-0.2700169189574165,-0.19691466182164657,-0.048982035605239505,-0.2792532426846246,0.18347758789721863,-0.01831979027793605,0.39561313611236637,0.842587176156173,-0.2219065070562987,0.43365395475952023,0.09633617893543296,0.18353892523765086,0.637582647358317,-0.21242969375750176,0.172454799381243,-0.09476779255942991,0.3901549673889822,-0.1340940262444304,0.11492953040698081,0.35915765250236464,0.033468891688969736,-0.13763647954821254,-0.16532300657242568,0.2174738734116244,-0.19510041590614013,0.04361602833071428,-0.18855789916390667,-0.20274438921769614,-0.16398416575414843,0.22031495865430442,-0.2368221284871733,-0.44616649818554543,0.16306494729358034,0.317720367443838,-0.030616271323947102,0.46107174712491994,0.33391715942507444,0.10770514534441059,0.14240685314192608,0.11263994189670666,0.33984745062668953,0.3141961365042019,0.5406805687168725,0.4873373138458391,-0.18633211239356817,0.273667214703592,-0.39696703447339887,0.11678102324870175,0.3664089724167472,0.26328445356207475,-0.22049604584131532,-0.1416775823254964,0.0138574180345241,0.5239608247101529,0.02497548755656426,0.5828643237365084,-0.24033613904911344,-0.1916299377479713,-0.6662013886092771,-0.6608774823724637,0.42926155898326607,-0.4242167383724997,-1.1850429589475786,-0.6497774412715053,-0.20633556427144426,-0.9398566458833512,-0.9148078044688024,-0.8443541561388697,-0.5005409643062135,-0.24416527551726672,0.0707111746467313,-0.3824641423570734,-0.422448598861391,0.1291234584710668,-0.010108424362205081,-0.3893351561261589,-0.053745797009312125,-0.2849773806253704,-0.17558030553465243,-0.2574010616410326,-0.3659391898208914,0.3812211233700812,0.10636735760300522,-0.04493987783969991,0.5146230024225131,-0.41254235614251566,-0.17294741341845754,-0.6044975603417041,-0.11955108004949615,-0.5411537946900113,-0.8553044450201807,-0.525609308488551,-0.6937533291488417,-0.757751119745023,-0.8892877239876888,-0.21740481346077375,0.08842932275979191,-0.3400163214142029,-0.33644273631709914,0.08741363720239599,0.23011308458048765,0.23664128392870237,0.2821503699691165,-0.23715062339068466,-0.028997448782348726,-0.4265405074796882,-0.30639885429807207,0.09359447279916873,-0.06724304157139877,-0.546984898709346,-0.32451810167088363,0.4073273492207352,0.13134355365524256,-0.13371420553521376,0.22497701312232884,0.29784879416102794,-0.1592256571329449,0.24041122202031084,-0.13706118148823965,-0.015528316942308058,0.21561282623122632,-0.16963696763512082,-0.4683880464925178,-0.5713378026453132,-0.3086151632287488,0.00999844392623319,0.09554531347973412,0.2759603802055701,0.648132152429902,0.1025996055222518,0.16473419317077706,-0.2101419500715002,0.3048942257439272,0.06718245420311016,-0.18036410009398532,-0.3817402186750619,0.27356315945972515,-0.20982852540515565,-0.10643667019313671,0.7009493609832368,0.11325147120538626,-0.0036572313021585845,0.4774564928837923,-0.22081894193244828,0.31222610415158236,-0.7394617844828781,0.07585448549592755,0.15571570611221905,0.18109442272906737,-0.2352992857840469,-0.581595416724819,0.22761882008378762,-0.1290954075382785,-0.025325260579183363,-0.12357356104210447,-0.15217479880303927,-0.2671573777191092,0.443948293021158,-0.4399462906265094,-0.15364805572320472,-0.32956794211964685,-0.4947163164146695,0.3495983305676091,-0.3036294384576759,0.04112408506639361,0.14293485327769448,1.051363542081857,0.20890269222202126,0.4330749912863402,0.5631061020684589,0.30839945520538337,-0.10704690089104194,0.07162996908851842,0.1862389500646508,-0.8500744410048597,-0.7589059002926254,-0.8584801647189182,-0.8899631563710908,-0.7867529790088511,-0.7390970823511083,-0.20929197792231766,-0.9111250737645908,-0.32145783007348716,0.19529467126867142,0.3255113046404165,0.37764052194404907,-0.044826422953157065,-0.1242915382836193,0.09394128687302569,0.08570270316930446,0.260670831537556,-0.26319994033748806,0.5034645719548796,0.34123021445027407,0.5438391604141632,0.1748009225398864,0.38753619657936433,0.055711380357751264,0.3595541468536198,0.1088529623387621,-0.30033962411510196,0.16181855077837734,-0.48581173318886123,-0.7769445002248468,-0.9786664049841488,-1.082346124582576,-1.2539218983569214,-0.5249372153692557,-0.8172369639050947,-0.40794122833635693,-0.5851424929773632,-0.5203703535031452,-0.15371630446392084,-0.2809568611783892,0.27903755665183083,0.37081104706535917,-0.1630237660234598,0.30584586562953947,0.2517698189540209,0.3455503006910841,0.18321898689329105,1.099929280734818,0.11277544928003432,0.5201309525425067,0.03178368962130131,0.3655559531495039,-0.008987861552879575,0.6699471900349682,0.5229292030924766,-0.4765399475505033,-0.23848191433557495,0.20921429445217488,-0.15541120097960603,-1.323052511830121,-0.46208755389835476,-0.8326731553788754,-0.21321218361255082,-0.20951387089289658,-0.45511963324166493,-0.1628198939055284,-0.1037789644153377,-0.45099935590956275,-0.17727183774691327,-0.2548723658149692,0.2034348073529625,-0.08762975784138208,0.13747898532059744,-0.0843402824069704,0.6570393130263571,0.7759672459438562,0.02657846136762607,0.6010196022479581,0.027874118061610775,0.4303481020716622,0.04699776520677757,0.122187926479285,0.050674011948370096,-0.20934148716170484,0.4828262721194509,0.31784123030437395,0.5040876180252856,0.3790775522476239,-0.12975808337881767,0.5017357734156728,-0.0674645878977645,0.34256335531885146,-0.6645653783195178,0.011867675714690778,0.3077435267410717,0.47843849299221275,0.17754901070849993,-0.2825361098351179,0.08135461854948003,-0.04664435890845229,-0.4700607961457552,-0.005888636363265709,0.7517172751320412,0.2456818661267189,0.2163693393799829,0.7256332964016736,0.43125998202411003,0.5577941564385904,0.4734306527103377,-0.17649939203746334,0.278532433829107,0.31680280851676035,0.15020145768672108,1.3004825447864348,0.6119931092876797,1.4187975624531726,1.2821599904809107,1.2052815789223108,0.254247636211193,1.074920500325721,-0.3554486599403145,-0.1139422410247621,-0.31893276835601925,-0.49197555231167445,-0.43793136785031983,-0.4137961106552692,-0.32469574884027214,0.16408624312442574,0.23645933739026023,0.38040293584888407,0.2937279955006295,0.27092892849836214,0.2891194398405474,-0.10327708142650761,0.5659241282263583,0.8002536650314039,0.27296427840507637,0.33555806598577687,0.3046129395515624,0.12838668924214988,1.2417427338143645,1.4522975253531427,1.3398512044770383,1.6223974498583629,1.2191694657240848,0.16337161848548268,0.7816419699310332,0.5942048167016102,0.3856066526955471,0.024129901308021146,0.26783812546939456,0.22670680037414057,0.01671839929525148,0.11485262547864011,-0.11669318104830086,0.26612917241166795,0.32462371905609894,-0.4301472563618808,0.31092189423680155,-0.4067850300887828,0.31587016318753147,0.19343019459780636,0.6123447551347189,0.8906615034299583,-0.4510831598873118,-0.6423731929561699,0.29855165914938164,0.4226246730203741,0.9178028732942535,0.562186574000136,1.3345138234527256,1.0121813706359868,1.2284887718112238,0.10446165670758124,0.2850740458243708,1.0992147043165,0.5349687272832401,-0.2630539947854568,-0.06617416994750605,-0.2626537964166274,0.48209893661174136,-0.47855682534704463,0.23641172127699076,-0.4058344404320217,0.20699371704071098,-0.253390153366091,0.4996729106329376,-0.9605858017022235,-0.3166910280176368,0.24121659218099784,0.20688454634737846,-0.4101169930364549,-1.5330029068232445,-1.0232914986173176,-0.276130561389191,0.317889514154363,0.8501494363745543,0.40467099316486077,1.107216390083426,1.1872989681457622,0.19368169481134914,0.08987988768776274,0.18881541776360208,0.3685172505902029,0.3112397232599737,0.07152266343542588,-0.11275996999604913,0.4585165694273918,0.1491819535198804,-0.4562058928486852,-0.28417445266128727,-0.0207942047503238,0.4839979937888644,0.2731359153419003,0.029306342315239788,-0.23376769089116106,-0.28373666389521085,-0.033725808612849364,-0.25105652042807725,-0.4917981127806896,-0.8527905852409747,-0.5334216682504066,-0.02868158621081494,-0.1929687918051182,0.6796007801916535,0.8861760350936033,0.9901361798217125,0.20872903058258657,0.8918495632210102,-0.23074574063026473,0.4670164965393429,0.5808674123280773,0.0634930589046055,0.15657192151240645,-0.9089344207751537,0.44778706581288175,0.2539518668570878,0.33092020080638695,-0.2556954777413011,-0.34402444967679063,0.005734274157277474,0.366229191683489,-0.2645834360607168,-0.45660943722376085,-1.0427843950434665,-0.557586746694445,-0.6522704179403945,-1.4819795054057865,-0.696720317873952,-0.8352550840271844,-0.1431342473009563,-0.5149264115139304,0.7550369684770045,0.6745817296859398,0.622410231348284,0.5607130381945116,0.7769003078898276,0.12943376891605335,0.15383151939233253,-0.47052965551888265,-0.01586241637123187,0.16680758924917524,-0.16255483722288808,0.004701057253033808,0.31125210538263165,-0.4299824666200306,-0.03672810898172294,-0.050511678799315486,0.44962912830461127,-0.32470286292790035,-0.40766734276811384,-0.523320040594278,-0.8521469928523688,-1.4420119288730422,-0.8436678294500831,-1.6563243909259757,-1.112068159083974,-0.7023078198443742,-0.35649390430101796,0.08586854654585174,0.4977110584187527,0.32416153795509844,0.0018450929998118258,0.8932886497089183,0.07067481235959115,0.22181380730589922,-0.31365567940851546,-0.16802285982473805,-0.3698042542678807,-0.24192809403435792,-0.3710205885184383,-0.3460353644378279,-0.4230172537917099,-0.05262566957514247,0.43738253268609806,0.002550463883289494,-0.0873204420683353,0.07528490466280627,-0.47298992165543263,-0.5819619940650337,-0.6950544561524789,-0.8156735731647481,-1.579233644782356,-1.4798808015207594,-1.2470965900785556,-0.9325510102733147,-0.4035392456509702,-0.3799827201912801,0.790725648099914,0.5339165284371304,0.2434175291637096,0.02627172319754572,0.5090448165423959,0.6327981507098795,-0.5243714445351173,-0.22046354904363943,0.5789257321782397,0.6826252458735608,0.29605126179448715,-0.12625067956022518,0.0863292029367143,-0.48835641023834214,0.017800533329104404,0.003706044045888805,0.4409433981333434,0.2580261182940005,-0.23395980772013716,-0.21025037588189946,-0.9242583985713594,-0.9715458915805781,-0.6043498985734175,-0.9971318341116759,-0.6510638036208244,-1.0188651068653456,-0.2509341292031642,-0.21485020734101015,0.3359775803086887,0.2597091945454469,-0.29991052476529967,-0.2929239389360275,0.4468186626850996,0.4779789854559889,0.23271356866712306,-0.3312053482366697,-0.013997192604207063,0.6297872781447502,-0.3765450868464299,0.07428811137335074,0.0008173028419814777,-0.35427026472077355,0.4117045922923126,-0.45071404309230173,-0.2835658507738706,0.2544987328441666,0.043081725873740796,0.03807035413045222,-0.7086081212483807,-0.319795581080084,-0.1989282775941338,-0.5981178785015204,-1.1247942945896139,-1.172554859946238,-1.056768306677302,-0.4780158004532589,-0.3922766084703526,0.3086102680459751,-0.17941312376892493,-0.3502870566583137,0.6998920535604658,0.43738804129439895,0.572453770972105,0.09085752895234074,-0.17556166274439886,0.34575228143989706,0.4168188576004349,-0.0989935096843254,-0.3234036822836878,-0.027277998175619534,0.2815317448312986,0.33639536286361493,-0.4072309429028999,-0.19242079978066093,-0.07584800624913812,-0.20977906710254043,-0.34486878788043673,-0.18993838781774428,-0.06122996138910967,-0.7081865204056764,-0.6994770205570254,-0.6846734142029813,-0.06997382745619272,-0.5943034060450512,-0.5783411136727795,0.71037613886615,-0.007439330651746413,-0.18664439370194424,0.6578015398040593,0.3436218504407257,0.3720036241502763,0.29206320598485846,0.09401939332619885,0.06929112631898487,-0.1858156749165437,0.10403780004917647,0.4062849269934373,0.2531721387802679,-0.33244347003698416,0.07039029215274031,0.060762920183398635,0.35270585523413994,-0.4614998589057337,0.43044153245169525,-0.05710386510867165,0.10391124119714272,0.018746246855698295,-0.4079502130763812,-0.13698844930501525,0.5278987408314793,0.2779585300218976,0.37454789409584766,0.09494483887571326,0.7199428206161264,0.4961421868241316,0.62399979988593,0.9101387013419528,0.15413230665859182,0.4269710215531566,0.7630974784292966,-0.2803135983344481,0.1482100656263822,0.21485734437138318,0.4535190447306731,-0.4527765873944804,0.18714030839439846,-0.4691723889340845,-0.43044234777117896,-0.3603415671556985,0.42958206640257696,0.3845584262798215,-0.011613304355895688,-0.1283491278374652,0.2484112560378372,0.7070419115538027,0.08772973037605958,0.4090982634361653,0.23643547936947318,0.35626436781612364,0.678171553533679,0.23235538292708618,0.019962815905802258,0.7210912349407811,0.3540602539082191,0.4145671598796059,0.33561675209070885,-0.15957715604651496,0.7485163246782334,-0.09112565870691451,-0.39922238493737544,-0.09696874254235993,-0.28452062917613774,-0.10224801498889542,-0.38228416382911,-0.17857483216138967,-0.07163369227129943,-0.30439031809789985,0.1421479048558188,-0.2982633550496393,0.49035460323448005,-0.23343981967808672,0.21323046055697162,0.593808212960456,-0.2961462065581949,0.5885331338093253,0.2758657892294638,0.4791886252967441,0.5808814516685857,-0.06048274916523298,0.5436716898892815,0.6967007821730141,-0.38446886382724593,-0.3133069792967237,0.40879248025164405,0.27219363558915627,-0.13896493148080524,0.5899552949221835,0.061791891279562555,0.04455624934702137,0.40626964516460023,-0.2054957848548806,0.16309626797961255,-0.33882179437241444,0.4442215573174203,0.054617541405847424,-0.1384627035559259,0.37246607320567054,0.1094786693181737,-0.2125916905532888,-0.4529945540532641,0.042957571068139806,0.1842574642357513,-0.43415975025076337,0.19009346406051475,0.09265656367466638,-0.17018681990475204,0.5982641142590761,0.07621627421835474,0.24749263405967237,-0.40112196944922274,0.17681433165499938,-0.05014065827509163,-0.36944314632097086,-0.2487628039811312,0.07547279823553785,-0.27137203631027285,-0.4726002698514056,-0.479644442879152,-0.4483909522459708,-0.3805715076034245],[-0.23281019718723822,0.43597747922438906,-0.48131999312591384,-0.026473531831949938,0.3202741512360208,0.43059256425228815,0.28803999455510826,-0.4851445280718502,0.1597287963415553,-0.3053004371360381,-0.41006586626098035,-0.07525084506982176,0.3353265731205817,0.00895569080671992,-0.1759473020229046,-0.2633449590533958,-0.1659037428872951,0.28873127257730286,-0.1074098567334069,0.199942623024497,0.3518593043058305,-0.45576456685346683,-0.4842392379417548,0.22813832380632576,0.06721878697420654,-0.4867032408124136,0.19422595471171106,-0.10134654278718584,-0.08973093974947659,-0.3353941530249998,0.38466145582960093,-0.44392307302857265,-0.3862498479047167,0.24221774739279528,0.2442619604562462,-0.47938922315106924,-0.38470042263967863,-0.4849398632781053,-0.26065493698462894,-0.11369179047689192,-0.26473806292463803,0.461766144858804,0.22207420462725905,0.45489746341217974,0.21615824129241007,0.27553928314771475,0.027486114045207736,0.20038032466788616,-0.07915201593188345,-0.12476104211260919,0.15834418537878192,0.3611280462529827,0.10045707756807994,-0.49268023356371066,-0.11193506840519467,0.1697055197198099,-0.23273579242628423,0.29525146904103533,0.08119710921374043,0.19580642999123038,0.09201436901183382,0.4827289564018173,-0.4732005747979578,-0.4554101123692948,-0.28619310451288466,0.17444098548096487,0.18526009689267228,0.41708456869308014,-0.10237154843748504,-0.228154710695973,0.044929124043700544,0.3918122574006645,-0.3607672097913865,0.5404977027776704,0.35809683516318896,-0.022141190191322435,0.5881709344023606,0.1320039576789092,0.31716359121029974,-0.009933504338864047,-0.25086443590862434,-0.4625490569025121,-0.25375473408684873,0.4285291517130371,0.16645660931893919,-0.3109079400463058,0.12076611870543806,-0.08686552604822885,0.06606669756858365,0.018143162507067344,-0.35797972013372564,0.15227869808945507,-0.06688154136534932,-0.13647395929059059,0.10483440313353246,-0.032573231778937485,0.11344839838252406,0.25893278852975543,0.04133772213702183,0.2736557231931873,0.10496187762404488,-0.19971636020548184,-0.4280347821161974,0.5521011667368596,0.28305010684228255,0.5861565350713795,-0.1529802421554238,-0.00832582244242834,0.5099303421101876,0.5000880480771255,-0.2677540476991398,-0.4332043792325217,0.2515305299026171,-0.23270818477826918,-0.3265164794151147,0.4467943300178302,-0.08840126058900218,-0.1479167531632931,0.09001249690704413,-0.13523217390980655,0.31789193072540756,0.20471170267767677,0.6204143065994704,0.6034124365817913,0.527834883098115,-0.06286056169824969,-0.012699179432022294,0.13278443031166495,0.5319376556146154,-0.014838457259739313,0.37439090837795247,-0.3020727683066745,0.3083450527021143,0.5239446942305049,-0.27315887672358874,0.43084320232844014,-0.01601386226742782,-0.19384121678123648,-0.3217786593896605,0.46294830155890193,-0.4576079796878771,-0.09191629604599864,-0.4117930229066423,0.2789918625770406,0.13335789748096966,0.4364990354256081,-0.14631092816886607,-0.14882375090508185,-0.21925981573433403,-0.08832531039332432,0.7891219045073946,0.2730772498231722,0.43115696718072893,0.43015055186121337,0.31156590294503383,-0.01910118691977125,0.37849010375391295,0.13885947004334262,-0.4700327446160469,0.16827160727049367,-0.08002666470587412,-0.031283502744661316,0.2782560749272967,0.46996566623007274,-0.27040339024151644,0.06026112063738576,0.2728151667774829,0.4348658027990553,-0.24364402151003,0.08511805674906492,0.2522285610375899,0.4098045544870448,-0.24638155428301997,0.007858731119673532,-0.367668751141459,0.471277500966968,0.12772207299845453,0.353708838186619,0.17431040278343074,-0.08363487744588835,0.8157352107473891,0.10075039371284943,0.2961530989707226,0.002424885838578811,0.12861555248916276,-0.07479135448016341,-0.08387010581579524,-0.4862101500328438,0.2571726661910573,-0.15283741021766623,-0.299710954383494,-0.2518794776421466,0.19706230882909542,0.5873218604671301,-0.1910140750838438,0.11689955809581407,-0.18453205275676457,0.47838694487092404,0.20966897282993424,-0.37465142709341837,0.08001148733356699,-0.30758421751052933,0.4674336945234355,-0.26312463840673816,0.46134194863799965,0.3322853104062854,0.3213137357397572,0.24706960305266581,-0.07769710955178365,-0.37782261621818086,-0.07299182849878347,0.5788220579655773,-0.15625755713195022,0.34319123462316703,0.22020184984424307,-0.08049708960893766,-0.2660435036635394,0.3484254546591503,-0.18319933205156416,0.17733306589508302,0.8566756775877097,0.2087939234699961,-0.1896166898778212,-0.02017236567409698,-0.044573959213583,-0.14683691621897363,0.04247494648768063,0.06819597014316273,0.4938320880835444,0.20690868983285648,-0.20868521180964672,-0.44562827284404133,0.08067848575636635,0.250548807409334,0.33428082393492436,0.8246716189870796,0.36484126411849666,0.3985910598263781,0.4593524732303824,0.32343333861018314,0.03760582938554336,0.14864085468931115,0.6688241938894464,0.4620251193427964,0.26345217553844436,-0.47525572066897276,-0.038571360145504476,0.3472039137490334,-0.07311024747997934,0.2731495389659674,0.37391017690211265,-0.4171885082848773,-0.4886107113798781,0.435765849009733,-0.16906896418401796,-0.27094480163827617,-0.3341936715019753,0.5117774136079036,-0.4911787066518364,-0.26539685353162795,-0.295155629576598,-0.177886478441593,-0.05416774271142935,-0.14162285362940133,0.4139678344173444,0.11997590907592663,0.1665676324865617,0.4926381550316724,0.049661002807653364,0.05825736483917536,0.3072324517949391,-0.4060102990869404,0.19474996968714944,0.03299350136510954,0.10676556860437374,-0.6396036101762815,-0.06325032314171344,0.27005414438578657,-0.13664454857067185,-0.26105818600673153,-0.32305308781233855,-0.1933681639249127,-0.12363609819834478,0.061425703232066156,0.06131982171424548,0.22355911206217932,0.35334314479039564,0.19512573022397997,-0.30811728634884217,-0.6085834304385717,-0.7042746373939426,0.299189570042001,0.37277036317812084,0.29868961688939194,-0.15596919354786687,0.19890420704380873,0.29572793140430786,-0.4938022612346006,-0.4505094568617653,-0.6898642722513393,-0.727598836618031,-0.9542351952105695,-0.9056735481797913,-0.5885162213030841,0.06134413963260401,0.09499168830296698,0.007434677281545411,0.0658861212657364,-0.19899549388272886,0.3272757482018677,-0.045392362346517105,-0.0772294882665487,0.5402707338876879,0.2363358521688895,-0.5428107223436869,-0.639766566740345,-0.416682234870308,-0.34047628286400194,-0.07503535313016714,-0.21923154635558167,-0.3999367645354666,-0.23859482567209334,0.589266203428004,-0.03546316476119861,-0.07037438575726379,-0.11370926274536523,-0.09454730333580233,-0.6865209001848827,-0.5966028357267958,-0.8423943247219917,-0.9516988459630616,-0.9125703322793453,0.06464448711869175,-0.22282980122712662,0.47730613002895156,0.058587252385619924,-0.05315454594507659,0.13043661635887585,-0.3977287493797371,0.35753533666207343,-0.032515139063776066,0.12861509952087133,-0.4736455472382737,-0.15254576279197515,-0.13206884009695105,-0.24878472665875187,-0.7920431079098993,-0.556343770138901,0.24681859091947897,-0.29227707983097195,0.5503225649049656,-0.04092962060997177,0.42992429439152313,-0.46372984265822864,-0.547843872436317,-0.6812543789904227,-0.10857612972104962,-0.737397565764036,-0.33481651985567107,-0.4424519339124549,-0.22430621693356936,0.09607723279134633,-0.4103318026408263,0.09856724911860291,-0.30922023052112396,0.04159744647436892,-0.33683463445372536,0.4507420937384386,0.0408492183296639,-0.7510714678735574,-0.5053112228837012,-0.8433772838084284,-0.729684726410039,-1.0668058302063734,-0.4230402886188317,-0.4492613672752086,-0.33841103996767535,-0.4902176626624097,0.05348037521458426,0.3547280915140191,-0.042840593510813624,-0.30534999007462293,-0.6213762126555036,0.1464470761339015,-0.10888481074969343,-0.7481132334746187,-0.0697078176095085,-0.8301337089487072,0.03613962172974435,0.007678580092119329,0.0485118946349162,-0.41754801830988586,-0.22185089721576856,-0.0020744099399332906,-0.003414849869552538,-0.2142775593940304,0.3870983266294408,0.022343211235465406,-0.17769736344698236,-0.7744527998706798,-0.9146385554048716,-0.7418254710379107,-0.5566306583798313,-0.8299404290081754,-0.4447546631475458,-0.021400395387712472,0.10654622627681866,0.3063677426731795,0.8193761408614808,-0.028576610505119747,-0.42096495025609254,-0.30001776627701465,-0.20383538144417473,-0.15060166674375347,-0.6740033160901319,-0.08980723114946042,-0.3737280120854602,0.3311112241508592,-0.22383929466648514,0.20139055166050232,-0.0829215540890237,-0.36645257146025023,0.24465114751455208,-0.29898981905711286,0.0825451810081125,-0.4816331231233258,-0.646750116077724,-0.02876437860028521,0.0882000692276194,-0.45501544382106535,-1.0590685842728453,-0.2048373209285263,-0.350124658526744,0.8350229908609015,0.7694966232814929,0.8964552861607107,0.01509400437141798,0.35970624522053046,-0.37377981831342805,0.32134604519906973,-0.5581639288610134,0.12523794541961403,-0.795649536080507,-0.8546987949282763,0.040312002339729244,0.48047576959122457,0.03840625043417842,-0.03974110709028585,0.30086775765859675,0.4619510177788812,-0.004830167065208983,-0.3825785935362374,0.3885835288121248,0.14847932138961323,0.28771713423329787,-0.21237812407449128,-0.5029175599522834,-0.1272978980593217,-0.6854000026248745,0.17207287830858561,0.3105564997159948,0.6231732644695773,0.7631935948194184,0.3093172667862554,-0.3686503796465194,0.1561953223156129,0.6772345929193488,0.1959103588688452,-0.29409062370971917,-0.3735993767069942,0.11926045862119526,-0.3579949690919674,-0.18593228767108863,0.12790665890917824,-0.18950022615141524,0.3416031646419131,0.30216742201434404,-0.05795888021067297,0.4782997874510049,-0.30736289401442174,0.3254844445051292,-0.07959946072473374,0.2668122504177827,-0.11450404933956447,0.34788879789672533,0.0763542480295273,-0.29745847623907,0.3805699628274286,0.6851827161718409,1.0156643642370928,0.6312154644355873,0.10269350012553298,-0.04282040446991802,-0.06365229520455334,0.20777449411004137,0.4462152366113353,0.6172407910717158,-0.38137566664085587,0.03462520858474154,-0.4021805931669841,0.4259906045812499,0.16172012809810932,-0.09533630720604522,0.29414167393831375,-0.4756361360107472,0.3198644285463659,0.43504898086736515,-0.2831929330321248,0.4192622855082353,0.5021161322790243,0.9521065703308892,0.10268249755253038,-0.13174698754359515,0.17500676890388214,-0.1609923109315363,0.2549916398580195,0.7384571629257761,0.23840960906736247,0.9328481169016947,0.4733065052200542,0.12054250366531707,-0.1296609842803851,-0.05999182715607586,0.2394296975137434,0.2851196975586177,0.11643102478037905,0.12168262258823213,0.32238259829353316,0.3135493944403989,0.3441581515475092,0.20028208183526539,-0.044024251563671915,-0.46215292383672674,-0.09479096152604163,0.3075378247781237,-0.029248188351439556,-0.2623768923145714,0.365728239159945,0.2633634829968483,-0.3374275636564824,0.28497258135657627,-0.19980912600441003,-0.032306983362088995,0.39441333208179197,0.1911760390692452,0.4880125800938779,0.41424246642093987,-0.09556340639828494,0.5487548285993336,0.46864175959259713,0.2336446178134899,0.2817088914165068,-0.1511622189331383,0.38751536240189893,-0.45310072045190275,-0.2702208889698895,-0.37805663188313104,-0.21529066396031893,0.1998352379911979,-0.22354227337330482,-0.39374872731534566,0.3672036911725541,-0.05561137396940918,-0.11093643710883497,0.41194735081317985,-0.03680403864950007,0.30757795473429794,-0.14651644981205963,0.16451289628514337,-0.4323087260316373,-0.530742795525377,0.4275313788204847,0.4200825429917502,0.5089009027451595,0.37257706259574613,-0.24148147050478733,0.7234574225218888,0.8823444231822066,0.8777892610889271,0.861984780055994,0.37220332476722595,0.13912464337912922,0.523789390905796,0.5877483205509995,0.49034063053247084,-0.20846596138588266,0.4126232703969189,-0.25344898959019724,0.2719972693762032,-0.4133558218124725,-0.33721823614678,-0.24391462645764184,-0.3190619726455472,0.42276511191657573,0.07813416304891496,0.5957942701072959,-0.18748415143656944,-0.20823048616184722,0.09681648250296555,0.3753117519516919,-0.11777828581529902,-0.05414192611624735,-0.28917542526503554,0.25654948275455575,0.24277416588565162,0.23646714403551056,0.1751296235327447,0.5239790428690265,0.28570323240526757,0.34301795026426357,0.5272438013193208,0.49084427156484667,-0.2643147203627131,0.0876589041913247,-0.07213529778816653,0.20477339130632602,-0.07732199075990691,-0.13277455854760423,-0.39943733840114026,-0.035582709850983885,0.5117280147043897,-0.12562547741547742,-0.23259398447916843,0.07849856658402732,-0.020987406061243004,-0.25593956827207576,0.3198874646252205,0.20136696515447466,-0.26798776746756003,-0.17314272268270411,-0.5513215415897088,-0.17973458740678985,0.513318869847727,0.3577740867207634,0.35915969852832436,0.0561939329598736,0.06454649614285932,-0.3677286465530015,0.23143963257618785,-0.36553244338113045,-0.4472370324525864,-0.07304495973225034,0.42865167255183556,-0.2714606255417449,0.19412918897989478,0.2830772982585957,-0.29632762946427865,0.486240404535985,0.09366992599991296,0.17507519778538932,-0.28773374554982106,0.15620663203592836,0.15786646505207605,-0.5481242340620543,0.2837297596314603,-0.1018840276534744,-0.6086770197839745,0.07994651371871353,-0.6236659337678393,-0.4718758906073473,0.03766409390657282,-0.09559976441818879,0.8445696153806956,-0.16238206334639319,0.1306552227693863,0.40799046354082386,0.18309553123707523,0.08939886825759326,-0.15743186100543205,0.2702331485232222,0.25686279114679456,0.31790400910271016,0.3308708049382078,0.41903624438131154,0.24622918881359934,-0.1615754431756434,0.210199660642048,-0.39210867005956807,0.3851089184885295,-0.015326286947575894,0.3072229853664415,0.027339659147232184,0.794936290250789,-0.20857708947527898,-0.4182113154792147,-0.32236375959105656,0.04019520999353134,-0.17502052672218557,-0.10128768096505456,0.5203558672088344,0.10241214900127166,0.667179165946343,0.6953570102759152,-0.2584125959463588,-0.05072982624978508,-0.28707466674508186,-0.12512412654746677,0.05570402383231436,-0.054617756783789134,-0.15807846360031635,0.2989640588572084,-0.10932497147742186,0.35954554835124075,0.13185143187536502,0.2146155269161586,-0.05548967382446491,-0.10857886487244704,0.0006108781229175501,0.06144579838869301,0.24892260344134484,0.16083065618321077,0.5183200965767933,-0.3013446654462672,0.006437281529534849,-0.22348531120371357,0.26732462380577726,0.6267788664059257,-0.061610209434751935,0.4799898842491405,0.47288221829394933,0.49893490820735154,-0.33049011049791466,-0.15493677550339305,-0.0609181319969662,0.17518406785510218,0.060617033737088155,-0.11230976454617034,0.44969817261762174,-0.0662560291752327,0.2776842530959885,0.10378145245087685,-0.29278054957180083,0.4412250647893263,0.2773874289415194,0.2700489375589606,0.24200328816561711,-0.07772386281234353,0.028106276922696634,0.31024171073628354,-0.1544039889966799,-0.36465490808267986,0.4037503167463959,-0.40196615292606763,-0.2646317905104039,-0.43602451591106267,0.28380704349441377,0.0844241615979431,-0.30330863739149394,0.19120262500617757,-0.18848749573174578,-0.43723291492599653,0.20159988375264182,-0.4858385808511318,0.23168846649889488,-0.363848941770112,0.13908084523664915,-0.3753256450642219,0.2001798157274574,0.4914342487311299,0.3837169953299771,0.24485139010209658,-0.4968611869762362,-0.04484744272294918,0.2894513794697753,0.49538648100406335,0.4489710958390969,-0.3990460877048302,-0.19156053412440002,-0.16796852881295862,0.37147454220096565,0.36459793819450387,0.0016352347499505966,0.17281723947665653,0.30440079480220017,0.4588323220485508,0.1737962445080487,-0.015495112302032451,0.22777664799164132,0.41401452313221165,0.16884510157451832,0.31919448267875566,0.24136134419101213,-0.4734317515383261,0.03890789311093274],[-0.2469646548892994,0.3878313219212785,0.4569131809584775,-0.444980489165724,0.22449188860869132,0.304308150489701,-0.24833596003054967,0.05442665477184264,-0.3805696061564949,0.20573253482112644,-0.11187198920419623,0.04625787426888909,0.4125185121644913,-0.3730110397125883,0.4454200093249219,0.49443488389626705,-0.20980691139643934,-0.3975639734892989,0.4336198354482272,0.10985948890033119,-0.46620276254724075,-0.10131747939211662,-0.025396239595751623,-0.12405241061881973,-0.2170548055550003,0.28011361625690573,-0.05407988799819271,0.3636965192385149,0.496491916571214,0.108447585855086,0.028189542916906375,0.07759103067918587,-0.3645191148779978,0.2146220462216172,0.3124583971760109,0.46569553099736666,0.19359082951575995,-0.43429739527308087,0.16751603439929616,-0.2746542851760584,0.35925380075532787,0.42727857364573246,0.3464301373652817,-0.06709162006410099,-0.2688465605556035,-0.3365346137274208,-0.032539706856335636,0.09129054636163407,-0.10255098509318367,-0.21866039538834112,-0.03630204657208502,-0.45829469134573075,0.019386335558017533,0.3481138857598958,0.31967842729408186,0.07143870848941329,0.14034188675863749,0.41920287884242885,0.36708099203328826,-0.2831681661564748,-0.2095816115563423,-0.43038260195742,0.09690162577279467,-0.061998664132395166,-0.17452841781366724,-0.3564474178990411,0.34423178042062336,0.31933751640771574,0.367165999681272,0.020367637846769003,0.42233709086576776,-0.4700613631795454,0.2381938179104604,0.2751657185312673,0.02714260247333513,-0.17952975238042898,0.45701146471255216,-0.23921907178348345,0.49131462768469114,0.41107287216530386,0.21774203921175378,0.44297265233246524,-0.17605880189338172,0.3934944699588017,0.36023551720972286,-0.34393473703069094,-0.32343745163787335,-0.49600776517459993,0.49984997002511006,0.26765476086498663,0.22120781604745343,-0.24096190164756395,0.41623226716028966,-0.0012608138668483903,-0.54839261973584,-0.23579735784008782,-0.37637970692489814,-0.5467988120876264,-0.2751630113896863,-0.20425912749533467,-0.5597336271174885,0.06811285778911867,-0.09845989211015813,0.25122431240467596,0.2575132691242727,0.14163306296185993,-0.45834338990374957,0.0016985396970709398,-0.11089589788913196,-0.42741570792442013,-0.2745354097603228,0.47009765592917224,-0.050674456615905604,-0.19175994935318547,-0.2932699913682948,0.20317585792808135,-0.18348422749299872,0.48340554026546667,0.26848941994938696,-0.10044584030376255,-0.39545656738347956,-0.2562704077723466,0.16558884400754686,-0.16827688764186835,-0.27624671200376455,-0.011274396337989257,0.3289305673399431,-0.3056586037996865,0.31299064483469624,0.021815014104881278,0.28983663831687784,-0.16206066281453566,0.3313854057435464,0.3000345714573948,0.3718030300691129,-0.1698322660614262,-0.1833279608713327,-0.1105877013732539,-0.400447658010629,-0.3401642605668354,-0.14137516458206353,0.2511047278776884,0.035385564535912774,0.45701263360639904,0.419927482962405,-0.4049396864520798,-0.4753579491695518,-0.04394831675305582,-0.47515475612943,0.18722900933044828,-0.6318155481008627,-0.33124722035515286,0.3323391183431285,0.32171064400394145,0.5294570144704012,-0.011754778285014426,0.5000387664135648,0.46661639318528914,0.06776334329555912,0.567102520572888,-0.2593443313492916,-0.04858186009139182,-0.3857556528973554,0.2684775372653091,-0.4300165927931721,0.44248417261325895,0.19751246364327435,-0.33123828876444245,-0.4279319129550027,0.3610394451520876,-0.17092070020514194,0.03708507306207319,0.26842993654138947,-0.5023860742751943,-0.3702430765922119,-0.25075638864455474,-0.17955461637462497,-0.678420363465286,-0.7745950075942533,-0.4649460559977457,-0.506554784190409,-0.5264408116360906,0.6712749708240545,-0.05428977960644303,-0.2641235136057778,-0.08357754254585274,-0.3506314595823305,0.2658286220876382,-0.1891640564018323,0.09379519059632044,-0.2430550750857759,-0.11647921654233424,-0.7673837791621931,-0.6214610326153325,0.011644367388238814,-0.14794344885440594,0.25629453444403466,0.4075052642694655,0.20172100394797235,0.17182278328563869,-0.33478941040529697,0.1383167574709482,0.3782765074662665,-0.24881653841746335,-0.2165101104524806,-0.7881751274593737,-0.886765643532652,-0.5133299730931471,-0.690126596153761,0.010393404621577914,-0.28089103052474385,-0.0799008275608596,-0.19964838756181744,-0.11807121930483272,0.16485021200442274,0.14135283971016877,-0.5471838679876124,-0.6228067305766821,-0.33093481310274225,-0.48922033642493884,-0.2521075596865182,0.13055310027951372,-0.04688869057433011,-0.34471256623661295,-0.4150300830701373,0.12145401466194428,0.3953887143186544,0.25451756119305585,0.18150469644609693,-0.49411414337627607,-0.024220058483466502,-0.0437374428249781,-0.43191177670962244,-0.5777245037205592,-0.015562490065298197,-0.13523526714212453,-0.8181238732308449,-0.457199210827257,0.022102088746185366,-0.07368117224621344,0.04264868419582235,0.5864012074758581,-0.01383746724356446,0.12225795492455532,-0.39221237409275034,-0.17044303512428868,0.1462643880679957,-0.6214177846073351,-0.45447611047628844,0.20932942402497437,0.08161469414163515,0.0917585878767469,0.29618501999826785,-0.3434583316887219,-0.3925144769304657,0.37527749858677956,-0.4055002509670673,0.17924308631976035,-0.6245078760081678,-0.04783755684744758,-0.7622317263984044,-0.6409446844114168,-0.6053906496720379,-0.6808337423085874,-0.3650501055432629,0.1777917926382288,0.11639653088032614,-0.1444790612646211,-0.33752067793802126,-0.0778842519344666,0.34194699157658365,0.5672183362195232,-0.1778902903310442,-0.10750859061994421,-0.4330984401770075,-0.48943485964534533,-0.05823747396192697,0.19169988360984758,0.26903143222701054,-0.21607817557899955,0.15278055116351838,-0.3088747811444868,0.08011948005152239,-0.17384194578958614,-0.40096028818971047,0.29136773782927056,-0.4154003100827245,-0.0823005174258952,-0.1415629802333337,-0.40162981230098105,-0.668121176073043,0.2895570466534196,0.13922272793110269,-0.23403436067581787,-0.5500394909357668,0.3304721209052844,-0.09332249332488973,0.23325448140884883,0.20807799884109282,0.11876499395560378,-0.33296112870984806,-0.24144626017684123,-0.3384477081849292,-0.39345501584872694,-0.20148922824001173,-0.3984402251234845,0.19503878110545506,0.17596549656721927,0.13355891270678272,-0.37006274310286114,-0.1283674310376438,0.45904700411696797,-0.4833725013747923,-0.45612649808457545,0.011041916768528804,-0.07900654121185122,-0.04184207307932178,-0.22242930879900216,-0.4600256509175668,-0.10277962708682421,0.09953251132763494,0.207917375464754,-0.2637787981759854,-0.1826746711730733,-0.6662642586485716,-0.23545295806323996,-0.34549576329841225,-0.4222055490082058,-0.4257388304493986,0.19054045696279318,0.32841458130562473,-0.15600637650497734,0.2818202770067422,0.04372234200453877,0.3173149356352687,0.038765745377659186,0.13033128773552155,0.03982714530529806,-0.036295693614839336,0.23486420605154915,-0.7229526269901629,-0.005795075461314313,0.0059414512598047215,-0.5613002357828673,0.25163272202050135,0.126607955430407,0.41085185967348853,0.32834983404854656,0.5570001860691016,-0.2304749837027267,-0.3192748573921046,-0.3116147647358444,-0.6185544338631266,-0.4929180798699358,-0.1454579747835489,0.09388713041078445,0.015704498344869266,-0.32742587274071944,-0.36786459666619353,-0.40371095523160616,-0.021970931492060856,-0.24130151741742195,0.20724367621822495,-0.2110850945662498,-0.1762520156428777,0.2531047051227042,0.20643465725736407,-0.0918216528025495,-0.3190283995954071,-0.4617318015619199,0.30302022848732774,0.03595666974014821,-0.20725145193551908,0.3489955382166869,0.36212720158959677,-0.002110371333018044,-0.2908682144535532,-0.2991376423353707,-1.0076978245238133,-1.135736972048415,-0.7076238301326195,-0.3632480366562041,-0.37767766598756924,0.3181846207161563,-0.1181039621353212,0.017751594869345976,0.4310869922733975,0.12146680423086574,-0.45596495344729426,0.09556758924329942,-0.33454877224643625,0.0485573537047532,-0.05510209698491846,0.18258360645275087,0.2918662093760209,-0.35966806915534294,0.22137209783306783,0.1732678602515488,0.012728000879125042,-0.18949724814667115,-0.24336353947532705,-0.002337296220464786,0.12320035086304092,-0.17668782136316882,0.3581856489524964,-0.39039663047587303,-0.2485728516119739,-0.9873809131631771,0.00837377928932302,-0.09335145480949997,0.22998177473152967,-0.19860967796988624,0.005935072751527412,0.030688569241402865,-0.05917331144948253,0.5406995508187353,0.1628628079539102,-0.2429028812598805,0.11508006464357312,-0.22453170870130473,0.19104228946129773,-0.2946632840694321,0.06617049432623302,-0.3256313142334002,-0.1024521230297202,0.14992663243678206,-0.08843937911312177,0.012514633012099497,0.6727338499872343,-0.06741455530342957,0.6160837330143756,-0.008214323882215291,-0.5958206105730572,-0.1995835240025509,-1.1051471005483209,-0.2532471970115909,-0.29689354805421164,-0.05737842762029812,-0.43507960048849803,0.2603281972126876,-0.11245390825746215,-0.08077153110899513,0.007039020885089094,0.3116000419470453,-0.3605604508740623,0.24740160071562903,0.07664678096607518,0.2615281349976028,-0.30699383658779156,0.4258640668675315,0.24862122036689033,-0.12798973354719306,0.1456470250677076,-0.11375527937606524,-0.10588593212547436,0.5353440160282625,0.691844502533503,0.628794390306349,-0.043882844204128156,0.39173350588961836,-0.728261252297977,-0.7366218740653013,-0.15908190828950736,-0.4541726062553994,-0.055971479572385664,0.14902571494389244,-0.20856106235956604,-0.43824751167787507,-0.45106176522075414,-0.44789473858347134,-0.1483342235499344,0.37777197382850325,-0.4665736161662532,-0.08538138801801774,-0.09147883728359994,-0.10293878650100914,0.3353182345499223,0.43245124539378615,0.10268953723700425,-0.427952884344101,-0.42603346740543785,0.26599581558372254,-0.2639170962172842,0.4316468958075517,-0.10965501736703129,0.24629007115214352,0.0268944926347924,0.24028967262836187,-0.7010698241372821,-0.6436003945171955,-0.7186431195192062,-0.4447850929140506,-0.21344023944986673,-0.45762644663230195,-0.41989805927343715,0.3298069379882305,-0.14898559136523717,-0.1862044202304889,-0.4809251041861078,0.03208412002629283,-0.16260329015897979,-0.05529065159159704,0.4599020021049486,0.22975219181213907,0.483603275175916,-0.241249503500813,-0.12706840342682246,0.07940982055085027,-0.3374781204357044,-0.4528694602872977,-0.35480587296408866,0.05806514005430767,0.6423175919810559,0.6714995745655556,0.31602942022713476,0.16956564857923276,-0.33879041106744495,-0.906761663075792,-0.4593291342626264,-0.5320742479395283,-0.4568588546683212,0.3304648540311463,0.26873022609416913,0.08305618822628144,-0.7073325640916094,0.2733276860685771,0.28499808609361793,-0.02130725312087792,0.31956449830222916,0.31662354765763967,0.32547210987213615,0.4330127804917812,-0.471202618593278,-0.4945925474639811,0.31485417975071683,0.03489073260112368,-0.44986642051578735,0.09038927176612811,0.4517889909272933,-0.2605147842559327,0.3686861039362509,0.2963501564091333,0.6152326428272115,0.038268275223681404,0.03743518250657324,-0.1504071066709532,-0.42439359645899427,-0.18360747285442378,-0.3852472330956799,0.06394917878265945,0.3750329587308436,-0.014103753879954745,-0.33946156225292856,0.0858773376107861,0.2770809999645565,-0.1642666842719832,-0.0027723309650237796,0.05542430319192192,-0.28707585284959813,0.07143054428453213,-0.17956442782603452,0.2755314804611084,0.35991271401704156,-0.3570796410195395,0.1238274176349378,0.3620077118119113,-0.0018358622557550532,-0.2297839420922491,-0.14190462613463514,-0.028329308891813326,0.4359297360292756,0.5768996241446611,-0.08892890545586067,0.03629776951797579,-0.30188591539218734,0.13467000193742568,-0.5231287753003793,-0.13306422199641682,0.14482977897078955,-0.6715671016945526,-0.03361281124136838,-0.29413712230855693,-0.06135579350681993,-0.0814761804799774,-0.19765245271850748,0.27101480638755504,0.3291291253655495,-0.0931819954354047,0.16472794278302924,-0.024383587424873877,0.20589230487113744,0.22839237477915728,-0.4235405346603235,-0.07420640604608193,0.49862651286839116,0.2446639926015143,0.0948678891020518,0.26342977757375935,-0.1406316393749544,0.46984281657808746,0.11509193624300199,0.1056035734249363,-0.3553654538728892,-0.48786487543427864,-0.40277325854770013,-0.188607263719219,-0.07824121124064196,-0.4263763265028062,-0.11423931904052276,0.16681165183218274,-0.0004455531044033565,-0.5470511155208712,-0.30269601715631256,0.3308131387420911,0.40748865477064633,-0.25550627469294224,0.42146185036583467,-0.42757797417556137,-0.15338669973695332,0.284586392538996,0.24899418625339068,0.3671919516900056,-0.15412400860994757,0.6263808153960178,0.25515491713037064,-0.17913847106786646,0.12507737841023586,0.4854098734740685,0.513401003342047,-0.16312085562688058,0.3433568767325299,-0.3232961182496221,-0.3417588889460776,-0.48157214215252,-0.12985846456345873,-0.6395783961310492,0.02001748414077893,-0.31400027765885763,-0.2843000091868149,0.1059587997816227,-0.3845471037249366,0.43442094995422165,-0.33674181564082556,0.2598285504576828,-0.12744373026393283,0.47768498208555304,-0.24426993287128324,-0.3837326759848976,-0.23367879694671545,0.10187680392705784,0.3756760806161245,-0.3358118403465451,-0.021947919300297263,-0.00068384244768776,0.0025588645966868623,0.25291652124126024,0.4091492241569445,-0.1536504363772956,-0.1345407898960036,0.3948168664706454,-0.19257276619991343,0.1511607737614277,0.0374139263863719,0.13622170685969115,-0.0035840756809386956,0.2944217193222279,0.15161375829782836,0.2946874331977685,-0.3581053531726552,0.25149714877761004,-0.1412858782914076,0.2658511777738792,0.2787629971765246,0.21730687084376346,0.2949856750428292,-0.36070810132519077,0.009702612549976907,-0.4093268214531449,-0.3278395455166923,-0.18753521251957686,-0.14213709520450993,0.10841159320494267,0.21312782143320164,-0.1806224189255818,0.16462888161125602,-0.7117531663461679,-0.20760562695631,-0.6108385396391782,0.09541426125758085,-0.17931560828467893,-0.685506063701344,-0.5907896543480493,0.10082432257759331,-0.1799471451658877,0.3414517970729055,0.10492056046793229,0.2716286993800347,0.4910935899379669,-0.011116376921804954,-0.3742766203073615,-0.4691680549048272,-0.22584040981816253,0.09755288490415369,0.186911423609693,0.2849596183496994,0.012413487864330578,-0.2688465243348335,-0.2582194964666914,-0.6473383538998125,-0.38511655560576774,0.1834381283103152,-0.15914017118581608,-0.24393501583632965,-0.014232618062810284,-0.05480685246407617,0.25993631666850875,-0.09863856086504165,0.30059464462577185,-0.11628163258901797,-0.2312294901840396,-0.31426954962340087,0.3261548928600553,-0.29176955480777056,-0.26137069693780707,0.396213791386083,-0.4311832995497935,-0.03331746592833187,-0.2015442472424027,-0.34410400104422784,0.27267676422866066,0.4725559718183024,0.16846167086386338,0.22231081494532703,-0.05723625936413428,-0.3859293833633703,0.16155858024953082,-0.3262399503585482,-0.10467339207246151,0.08721489299464293,-0.3323367824697144,-0.22205008400635887,-0.4772234594891452,-0.4554565660378863,0.08696412092978965,0.014829156593094585,0.06096745113087608,-0.16713991676558573,-0.33637160144561795,0.24362298423761664,0.028946923110263426,-0.16106283198249868,-0.25995818840894735,0.4436567597148141,0.2567887017905441,-0.22004103229120117,0.4686363279150168,-0.1930175301247211,0.4758901538319265,-0.08154852403916209,-0.024142081943321535,-0.09241646199327709,-0.3250908251056929,0.4348944923150639,0.1723625489509501,0.18103409018694838,-0.39234574517278287,-0.10110491016834038,-0.30333679981342654,0.3013158734635033,0.26134155257860925,-0.36670045616489666,0.01073937712093376,-0.2266927677666884,-0.1066869810508103,0.4170865912388877,-0.30905202223696926,-0.4423002143917434,-0.193794616125017,0.19410485990565068,-0.3095568344460961,-0.2948111658859595,-0.4385710666773452,0.1680818127360814,-0.3549389770140839],[-0.4787695878376301,0.20819140388237942,-0.1729860745228026,-0.08619301780846692,0.40516247397922206,-0.4273275624772184,0.07170867718008897,-0.026134405928363056,-0.2278006016692459,0.19078162291087183,-0.1840521243499406,-0.3861570710908598,0.49648742935286655,-0.011659056927218204,-0.010007651054074187,-0.0011290525842096372,0.1185289405946621,0.40986711987888097,0.19048058931705467,-0.07646818846103368,0.00866606741741235,-0.22381661132585487,0.45909883742085883,0.17950342055835763,-0.1365657187306241,0.3471264094671856,-0.3700943688078214,-0.06873137196297666,-0.1094975617019526,0.31153202724171475,0.1753460841552371,-0.2925001395329803,0.48341339539970596,-0.04539087232847469,0.31332517387465403,0.23611605903683344,-0.4301869457992417,0.31990083777209755,-0.29251384933512337,-0.3141085191761395,0.4792973327394698,-0.03444045824320656,-0.0750361725507227,-0.29850486285084565,0.18116887407478519,0.10511514550879913,0.24593372697154617,0.16694759951164742,-0.36981579865367303,0.4447509997307546,-0.430025463810803,0.2778297116177394,-0.32533050366321475,0.061698889309920256,0.15375092470573,-0.3577662411676495,0.23444972489341695,-0.14287577182179947,0.054040680724377586,0.38157101667872656,0.4105092378712244,0.10797906835840762,0.48108326874549523,-0.11232133997729994,0.37799870620855436,-0.06126461252774848,0.5208013948598167,-0.05488502511986772,0.5311409082112871,-0.2113882173773237,-0.35575866379276805,0.46930238951884357,0.262216679200757,0.3536148689356435,0.027490376594972204,0.3146317671397664,0.25659877108010404,-0.46658228639476745,0.2668417560622495,-0.4792258140116765,-0.15767534349547557,0.1142926305621551,0.3490498830161925,0.1631712430404064,0.32990830976961444,0.0066220525180849775,0.3301221644995022,-0.10344384192543536,-0.010716963087882373,-0.4712423426875582,-0.21173146481983138,0.3289693048097178,-0.39816722432823154,-0.03123691646473989,-0.1097246472335738,-0.22687394383759482,0.3998381606828536,0.3194585166920223,0.013784386654024055,0.662403217678956,0.2928896091425021,-0.05637393830770913,0.24085281333622216,0.4045633984640323,0.1341766254081745,0.09524322866299803,0.011149908276590804,-0.02207507278573463,0.07221956578431156,-0.13460102108980893,-0.19416321680026685,-0.4215584189986314,0.029194295726372412,-0.4702109972265021,0.10874613010301137,-0.2631411421090698,-0.2936198972504065,0.372377557428422,-0.3216943958918201,0.3943325390494899,0.3064747457152902,0.3976016726153308,0.26384354715459385,0.5378516507998211,0.10817797513362733,0.1667841209024737,0.3197745739193594,0.554336600305449,-0.30893219463373983,0.24299044957576826,-0.04756712490891417,0.29193232706081,-0.1932404062944972,-0.1320066429823044,0.050712193493539594,-0.33892680848459544,0.026929484096608947,-0.4524941665873496,-0.14903312280742767,0.3015334442678715,0.21938978380728877,0.02401051738637391,0.014420077478327267,0.1499831091056594,-0.45617342044249176,0.3712876381166928,0.37349856624604155,-0.0878362917955422,0.6267211440782517,-0.2929442954159618,0.41161318826415555,0.23822839012199049,0.2566049871511584,-0.26872919904293807,-0.1588616662071103,-0.16735274020945518,0.15761988544205055,-0.3028176125474308,0.18256756653710057,0.2694434496025449,-0.4337832797260166,-0.5919983795592968,-0.655783351216952,-0.011400433019310275,-0.015041073221914288,-0.28642082313833905,-0.10566789380817901,0.4676601237349372,0.02170525738796566,0.32339789937442887,0.1773235255467769,-0.06591609251653155,-0.05565797898063069,0.3885514012105764,-0.10400470407916727,0.109437884130441,-0.29038788083049194,0.34886499237065527,-0.45386969041034575,0.4030101850051008,0.10021373004341134,-0.11183561339397076,0.3428194869295125,-0.12105759089974974,0.3600150685380707,0.5028840715078485,-0.30202468420859535,0.08060671584215807,0.1806025691326042,-0.5101244576030671,-0.5650703980908519,-0.38631657173280254,0.5093309155597516,0.19239878056199242,0.3718258053722959,0.47142457229989904,-0.4914687995262966,-0.2778322452597138,0.2548109927816257,-0.32674081381081843,-0.2704273526745653,0.4167309447136077,0.1535538952573543,-0.31410449138033103,0.6668172229697753,-0.2559772827345542,-0.4249293182915358,0.495120285557801,0.743686982674268,-0.22076486713217822,-0.40449398870066616,0.2809925349193727,0.36792751895706366,0.0029939224342291804,0.3207564702077787,0.2729589806726807,-0.5082238896689267,-0.17135869392007586,-0.08376886747328911,-0.09379066371642739,-0.2909696670157672,0.44105986343253606,0.3342383491447138,0.23561396660576212,0.20737932694293565,0.06783800921429248,0.10053019282599063,-0.2061621037836258,0.14083533115090827,0.5820467252883836,-0.2244126634169068,-0.021458834654950503,-0.05584994309437499,-0.10057382057369213,0.4537421126276162,0.7455156682373094,0.20234108037590065,-0.23033210394001663,0.1283296082852369,-0.16232583329520972,-0.36410494943207733,0.29190989965007774,-0.2555509167524911,0.05881101459608886,-0.21216533096674453,-0.4888718351088345,-0.6857962846977714,-0.1451188297842976,0.461699616936731,0.433764812056814,0.4195950633575498,0.3454134240077238,0.42333058161000015,0.005917154711221547,0.017558891384515385,0.12103137732146303,0.567848407528939,0.1637862771171768,0.3055565574823827,0.37511224368749335,-0.2445254228514955,0.14930324535079129,0.10897452247266445,0.08576907618013076,0.3379428046902651,-0.2407777309833784,0.07477610344582582,-0.14897768017149382,0.25949680579541795,0.4174048561855264,0.3682000314153005,0.021839176549252257,-0.24836234401203633,0.375644637961741,-0.8432488127122029,-0.6810504742013349,0.22147422287949992,0.256692000590533,0.29158676395561905,-0.3619980910066434,-0.21444365166610904,0.3301914219375961,0.44229782314289456,0.3657754751665093,-0.03845816287356679,-0.25755885664811773,0.4144158127938879,0.29989159289053924,0.3086926086631797,0.05281309109654155,0.7301057453171708,0.5787342834944889,-0.3330354772450104,-0.23465611552174562,0.2867365819422385,-0.25373918336305523,0.10488029415220693,0.49247638733563054,0.49444096813072275,0.4184845186572296,0.10632715948877701,-0.24507099595198337,-0.9277474361469996,-0.7746260569130683,0.3428518191926781,-0.05830215884555419,0.2677742499375063,-0.47484101418938807,-0.40212636585645345,0.19789523472589693,-0.4972878903927795,-0.11459822625930081,0.4462403865258579,0.534380864962954,0.16462857690415017,0.09194552016859607,0.30009087778274846,0.5582954888735361,0.35801502297223553,-0.07122235799827688,0.6421227224831114,0.3473604828553383,-0.09291172923871108,-0.21361112046301287,-0.07507154418021159,0.5284917856156269,0.8479883195268009,0.6169947682822733,-0.4531947629072126,0.22928795115491948,-0.7714464025776202,-0.20794685334609375,-0.5730881941501886,0.029724481873005578,-0.23182733348371087,-0.49687294907342394,0.3163244307156612,0.41164617795071295,0.3303417439391372,0.3711125078940412,0.4831895565896594,0.025386923855050647,0.2054601680260568,-0.32997176565553177,-0.26070643223051737,0.10399665308235712,-0.34836206120178137,0.38747597067541767,-0.1017578376364793,-0.12110882723001117,0.31099864510672476,0.5396414608997119,0.06549494464621289,1.05069859457376,1.1956090432700692,0.6674439873599183,0.2648651851278817,-0.5474289983511299,-0.7784766478684962,-0.0557692985041072,0.1917504261829893,-0.012300399850226795,-0.2871522312319968,0.3079642672884525,0.3719278795985124,-0.23976845901065189,0.32237576209752783,-0.1736224384073855,-0.007729305040545483,0.36924542325239385,-0.7737482605715392,-0.7047129597364363,-0.3978300408697872,-0.5168807008053111,0.6264485193389167,0.6876784453438949,0.4902851948306459,0.09075315983456551,0.503756592472704,0.9529045828570899,0.8795101634338005,0.26331074637060903,0.5104574304723867,0.9157063815427352,-0.11754931091628719,-0.1670194416209227,-0.2912127133617048,-0.4239224515607224,-0.13400809840503441,0.021532893067605023,0.10645873991257776,-0.14123930073615862,-0.4457921690066443,0.08716756384153469,-0.2791847889314055,0.16834141103693376,-0.20037119642466444,-0.7221174119039577,-0.4915848379510693,-0.17244061700231653,-0.5763634620016529,0.28854576366248436,0.1585068504644033,0.24628972022202422,0.5408635342985042,1.006097718382935,0.7510600926667056,0.8422306858459563,0.7039331002999131,0.46212019106317875,0.3652492395395867,0.851310372110699,0.6276157401472816,-0.37792786059761374,-0.20335330969736576,-0.9731597472481193,-0.6947999937058694,-0.2556305161233523,0.35756709794645414,-0.3592557658542397,0.27259384059451414,0.10968548475827969,-0.4169937854495052,0.4710619084168098,0.18441111003698343,-0.11957788390024626,-0.33938470617325867,-0.3829954282321741,-0.8697584973990248,0.1723054447035343,0.012599485043619307,0.8444474523744736,0.12092702608231923,0.45150277638038344,-0.13703598737083983,0.012986717394539915,-0.02583688267393225,0.49618120427610923,0.9221352647847103,1.147883023598661,0.16952097900173038,0.03600960786697588,-0.20779742952186536,-0.482885098099088,-0.5138546837929042,-0.4017333940665308,0.12536900665943745,0.07087014607465215,0.4454929171760911,0.22597364034287265,-0.30323924000778363,0.4480741065146726,-0.22383160886919642,-0.6835074396693561,0.0006211617214178627,-0.3805473616851565,-0.14415999382487377,0.3567969715875588,0.900438485422749,0.9124052204838328,0.7435749028226452,0.7534533249944565,0.6282977964892891,0.185040622181128,0.8337204416886819,0.8356597335312971,1.0825892505633752,0.7786432847240289,0.08422504494424808,-0.6925310743169384,-0.7873168897268845,-0.27761460443957653,0.26492875153752893,0.2283025091037827,0.49683031457155286,-0.34329068404811613,-0.49156814653132946,-0.47441854814424844,0.29609830647534324,0.46305231434395566,-0.11772155441184455,-0.7371171843197675,-0.7342751601982965,0.025629758232804452,-0.13116436375809257,0.6047068327520994,0.6044465897605282,0.3122614665611989,0.9322256958392,0.6172315106607239,0.8137712672415304,0.2354667856940874,0.591226437844386,0.08644687448503771,0.3705401792759213,0.41738993086671516,-0.1590615419292905,-0.592030361269608,-0.5294983449414052,-0.19699301732564828,-0.20090565301012808,0.3069688278539557,-0.1302242604420686,-0.10175802792506636,-0.33991632564042995,0.22792324389243143,-0.47908823434050735,0.3005429687604984,-0.4377256768873099,-0.0929568848573929,-0.9910678819884102,-0.34067285986890217,0.2870703632704727,0.26274249765526075,0.2648152630702143,0.8895997018704785,0.6598045560708422,0.3464476424690138,-0.2835142854482826,-0.45771783907652397,0.14683801960692353,0.5112101183337865,0.1467700572727749,0.045273708667633875,0.08854515763738996,-0.40363604041126017,-0.4101622677590204,0.10718087356072474,-0.26230064924729796,0.16981428233002988,-0.35835325613841024,0.4105622573842749,-0.14119491986587376,0.14392475574052535,-0.2641115833736905,0.47718785055444507,-0.6482646029900214,-0.6037734341003729,-0.20896207767959862,-0.7463745939193779,-0.2382656630361284,-0.027612705085678237,0.39860773891992585,0.7149528687911451,0.002982278938416931,-0.05789802187732855,0.03279942432783026,0.0711629896624946,-0.21642290020498653,0.4799282008889133,0.11984962252679285,-0.10278735753312528,-0.14501720955388656,-0.3997464091575639,-0.6330314195816783,-0.18452421989192958,0.29710177204724675,-0.19461281082196644,-0.4814561408488559,0.4004613762122954,-0.29551792636262325,-0.23369968602837768,0.3368605259051768,0.23734498508285928,0.28839433089100225,-0.5210409089783605,-0.46000728214993725,-0.16835762185046865,0.032817374690578334,-0.26166198005321767,0.4372623510838595,0.16052064315975634,-0.16781620211493112,-0.4086165755088849,0.3909895727312803,0.36820666134718466,0.2193641790938194,0.6130249418326155,0.15760119186078275,0.39662725374914587,-0.060352008432856825,-0.3598207487378713,-0.023891915646314613,0.40852688863283876,0.1752421197111246,-0.026302712706072463,0.4760485062582143,0.3823174661881482,0.18182206023531108,0.002061797270849367,-0.22420367414734657,0.473125519282356,-0.3564873376625278,-0.6717410420097495,-0.5078763951769137,-0.4249222671502132,-0.4350852701289566,-0.06649485146887223,-0.22340052282511247,0.3427941471891001,0.4750007701241165,-0.002396231537180997,0.8421293641176898,0.43327494920059567,0.9749118628094108,0.26396776151693235,0.5668717762556903,-0.22866360922637807,0.4763863121711017,0.5030569220999275,0.5165241177464813,0.15941213652060304,-0.33545480915558396,0.020733209574396887,0.34943172271931017,0.08801984643584536,-0.16927491062294112,-0.1423259154433334,-0.41260467993229377,-0.40989232355296673,0.3693445794309136,0.15210090433921683,-0.30490526225223774,-0.18445248201244632,-0.5291300848580632,-0.11300886508967177,0.11848567193513204,-0.017310517828769998,0.3963380944581346,0.3971860369234411,0.2181446729858153,0.04761016833143247,0.5954092609015096,-0.3227580817543011,0.640524225675487,0.05054594214067308,0.3383118472396143,0.06299386066591427,0.11175941419756538,0.4818240267025987,-0.007958645265751477,-0.2566559227297912,-0.34672562124377704,-0.42107714198233626,-0.38544347956458264,0.23465797289039778,-0.29250479385890465,0.1502431378126385,0.4665398205344428,0.08612843737871442,0.1657426616437957,-0.3828732832417574,-0.2621021261639853,-0.13563605785183497,-0.4818812159212298,-0.2143111022477202,0.1513758423627552,0.4608374376019444,0.5564821740569686,0.4545423133977194,-0.22195305200544568,-0.02716493334557736,0.6603782659046263,0.01514108033004601,-0.05337903131561453,0.4697682077763187,0.037322361333641585,0.13824022345693612,0.38578999776321593,0.3757652310955257,0.19137095147619637,-0.26944685292264187,-0.3470705232757904,-0.3800433513573625,0.062119373292285125,-0.25485793065873347,-0.07690522816329563,-0.3357397350411246,0.629382489396681,0.33609669640706863,0.2992976370906023,0.3523842105604661,0.1802851145562714,0.11218680742532948,0.5759338680372368,-0.31790626892297336,0.49767165840583716,0.2757559711547946,0.5118234464000162,0.1503905139380063,-0.06810297968814578,0.15399998956875913,0.2750831855931756,0.39178289473196254,-0.2832989123484847,0.37334940152858664,0.45371418150640314,-0.3506438630881007,0.20207104562517583,0.47404548743927827,0.04415945886635638,0.1085246271104032,-0.33419829562116166,0.11995520292884501,-0.18788283354382235,0.06907314584475394,-0.0554440054773192,0.18729755394556807,0.5628405055220245,0.20249524677916939,0.02302194042631292,0.06996100307943327,-0.12187652871804605,0.27684911475383905,-0.08552478855678877,0.1671673298504008,0.49803724342541794,0.14695577738754548,-0.35013528194699217,-0.004078340994461474,0.5506542000277076,-0.35241405429811995,0.5939334375468183,-0.33059166608195917,-0.1813270029835075,-0.30452512329301346,0.4190731193761064,0.3637543273450004,0.4252106936753714,-0.0916706284399054,0.2698140096899094,0.29678745870121287,-0.39607145190452525,-0.2871936155349672,0.05716237981960356,-0.20241912008423793,-0.0324873816374944,-0.28214230973014653,0.5219816800913396,0.37241851612956395,-0.1633041434249893,0.2641542298917448,0.2933048188830341,0.37694939829302476,0.038132237848748286,0.23284397244906144,-0.20704594545215463,-0.2427086389067641,0.008242809740805967,0.37854659958336045,0.4550939633902673,-0.42922204807619485,-0.2797479777659853,0.3366714040926877,0.26082243188412185,0.1332945015823672,-0.3084132193266445,0.15659983707695077,0.11223513276612337,0.40043931042857434,0.12028068034933,0.4362600949467095,0.16121310469123304,0.09474708991309344,0.29220464024730103,-0.1976709257326592,0.3087070442077491,0.4149527924557473,0.14601175669281025,-0.35844552762072474,0.17919693521455227,-0.32561579257214657,0.44226478108836154,0.21456898724517776,-0.10701964148412817,0.27261941753754576,-0.47916154832394414,0.286833411636796,-0.004958133252651665,0.17745618545579367,-0.21322361214292088,0.21518642099224403,-0.26941151809094616,-0.40542381735548544],[0.15082608226015512,-0.18669036981557655,-0.15562899558043866,0.31526970937255056,-0.45189778489720817,-0.029463286578642084,0.23942123745458385,-0.13879791772400954,-0.4341010256895373,0.31093645311812373,-0.42063814108545144,0.03530449298528124,0.3252672298800462,0.3789640197931492,-0.2933938274257888,0.004706990045823193,-0.3697149560665595,0.06911408434022989,-0.35273990987743337,0.49198181213138276,-0.05423236107662302,0.3248207320696935,0.41190771717487346,0.14396294644892646,-0.4887234986938543,-0.20314749156836567,-0.4711393773241162,0.04320180599258491,0.09977062676289736,-0.25780816944142343,0.06615292720133079,-0.13294800422816602,-0.20699708307472534,0.4457907159859542,0.1468493951824495,0.2961467788485468,0.014266630312281696,0.40703860701900163,-0.2712305894838172,-0.24228813081440714,-0.3674257758167757,-0.2268660210527565,0.4319636904486001,-0.038609858134218224,0.34390044322654184,-0.2917481224890008,0.3040997772340961,0.20700039141746587,0.2527712705379978,0.13216890918778862,0.29551932803207076,0.3913609180301536,0.35084235796521274,0.09280389442510581,0.26865935448138617,-0.43929506567317717,-0.3436856207545375,-0.3386089841803063,-0.46284126996305114,0.1669578375315184,0.4832342696678041,0.1854718467976371,0.26408976437673426,-0.2598879571311394,-0.2570819066528989,0.08213506855074108,-0.0949339229353898,0.2914130520286437,-0.17124610414020386,0.08449510088062552,0.0001902585531037412,0.36326368488490407,-0.36146655804724204,0.26794836465696337,-0.415512030474978,-0.10222386982190833,0.0018992061477561255,0.31935824472296054,-0.19102854406682376,-0.13777006288487895,-0.22557430065255385,-0.3151870698173038,-0.23011742971312446,0.20533565872244028,0.23831501154029486,0.2847012283542035,-0.29291945909907596,-0.4108118075735826,0.2878835324090314,0.0681675933759963,0.024991330049568685,0.08510019628516627,0.5182011778128991,0.3944932418388478,-0.09131859719957397,-0.11971355072621362,-0.024878279132441096,-0.23837563094585099,-0.12669676977337613,-0.08508517562673311,0.6843217145233838,0.7391888591506063,0.4469951237802348,0.1991069764899454,-0.20113670009918305,0.47770683093887234,-0.1052128560208924,0.48505014772632166,-0.41647013602246324,0.2981867096142071,-0.2741589409904559,-0.13055766974894237,0.09169418438611851,-0.03229729890407619,-0.3411070300641739,0.1396557478247369,-0.193620958079793,-0.2227404272284348,-0.2256203777774806,-0.08420632647763085,-0.3045164015862119,0.5445617355693035,0.2467347603036337,0.2563005739843345,-0.3199500547953136,0.1608149404219569,-0.2547018880538444,0.12239481379641641,0.18747767225009015,0.2862343789110566,0.18400508282918807,-0.06798275149261886,0.20110932433141665,0.5217870791391448,-0.17970165985512676,-0.31322048150765436,0.22569114719016234,0.3667663407221702,0.3602042559982511,-0.2343803780976225,0.310120680732396,-0.011966767361015901,-0.25766367189052847,0.1578125719600484,-0.14701933842360423,0.0992824538295534,-0.36009902314834075,-0.3372942866882204,0.5585600879208648,0.07585141727502726,-0.021138141212889212,-0.31308827995734717,0.28140884138255945,-0.4895421957416853,0.24840968841772942,-0.56621197064843,0.09568685760875555,-0.3716798921543169,0.14248047632242916,0.3331589665530801,0.5985818021028951,0.15230049450417618,0.00579037236705821,0.09195180276602342,0.3819068838062341,-0.45568537648348867,0.07950234157964992,-0.27753040903716397,0.1353317162664732,0.1068112822411318,-0.029157072120266986,0.07821542179746407,-0.4195384911635292,-0.034206701354848636,0.03654288421847169,0.2476395959666867,-0.0013912006811807687,0.5260477769569599,0.42893262176146213,0.07823004042683887,0.31866764379300905,0.434787850034182,0.2544745715044761,-0.32730215093975645,-0.058989123804350486,-0.39385602983278356,-0.2538601847717282,0.07496613795932677,-0.1927017834696202,0.15082674456952108,0.1471347509075645,0.4172664637296427,0.31011833631231284,-0.12664082945262078,0.4044633442840221,-0.14288567711547778,-0.20164779052429246,0.14732214839942442,0.11930957116910322,-0.31220867722783147,0.5385951286570645,0.23033164126803204,0.1767719216124545,-0.19188394391249075,-0.2687725564632642,0.3135645863617235,-0.24982244016546565,-0.3570280278875166,0.3941342540112905,-0.05930278653815232,-0.24440351783110187,0.29478789255750304,-0.41712252452127635,-0.10554878124026681,-0.18805269293162538,-0.09660777095455059,-0.2721510473022818,0.5910968007858185,0.27615774718311037,0.31917665069943585,-0.06966931799740243,-0.03502273388198592,-0.1829871610107808,-0.2926450886733007,0.012962783397651842,-0.2574348426572637,-0.41316587940758526,0.48807552527180104,-0.10022061483684493,0.37159347350574773,0.48204331116545696,0.4760900316303733,0.22566806131984504,-0.2264128131779345,-0.5744309911744286,-0.34804585684486483,0.47267944437661574,0.3574449247999969,-0.23221203424467374,0.4755245275455722,0.05799102250795035,0.17063445394251445,-0.6030575012249608,-0.0375432215244287,0.21162107230911018,0.5119158345985267,-0.22487435338625203,0.22912532091963977,0.320221973084101,0.6158480715559257,0.3858806840029873,0.4978435525687722,0.319880521786602,0.09466924190420847,-0.34352447346719756,-0.2081203415342148,0.01270581008908097,0.3222009866746768,-0.21926240141335074,0.04102225793301317,-0.24487735805226382,-0.2684041579677188,-0.5172668841021174,0.1962112386756862,0.5056840411572628,0.595516880854838,0.2172190477274157,-0.25815120912164735,-0.21840841736070593,-0.33571738231754245,-0.5971735115362727,-0.03189963413400978,-0.8284157363140534,-0.28917851703878844,-0.20365795390136235,